{"learner":{"attributes":{"scikit_learn":"{\"_estimator_type\": \"regressor\"}"},"feature_names":[],"feature_types":[],"gradient_booster":{"model":{"gbtree_model_param":{"num_parallel_tree":"1","num_trees":"30"},"iteration_indptr":[0,1,2,3,4,5,6,7,8,9,10,11,12,13,14,15,16,17,18,19,20,21,22,23,24,25,26,27,28,29,30],"tree_info":[0,0,0,0,0,0,0,0,0,0,0,0,0,0,0,0,0,0,0,0,0,0,0,0,0,0,0,0,0,0],"trees":[{"base_weights":[-5.20186E-9,-1.9677965E-1,1.0091263E-1,-2.9230866E-1,-1.0321475E-1,1.8613072E-2,2.4319781E-1,-3.164306E-1,4.1262135E-2,-2.2749798E-1,2.2502018E-2,6.232899E-4,3.6778983E-1,2.1512626E-1,4.4987336E-1,-7.8959346E-2,-3.457004E-1,-3.1783342E-1,1.08540654E-1,-2.353502E-1,8.33059E-2,-1.0506568E-2,4.513046E-2,4.1472492E-1,1.0517796E-2,2.953508E-1,1.4192641E-1,-2.4211166E-2,4.923323E-2,1.6419902E-1,-4.1504856E-2,-4.0805355E-1,-2.4496865E-1,-1.588223E-1,-4.132455E-1,3.4735706E-1,-1.7369539E-1,3.438511E-2,-3.6053804E-1,4.0750694E-1,-1.7174974E-2,-6.642512E-2,8.767689E-2,1.3683252E-1,4.7279533E-2,2.5788834E-2,-2.4211166E-2,-3.2281555E-2,3.143648E-1,-1.6392164E-1,1.9241357E-1,3.263046E-1,-3.2281555E-2,-4.192346E-2,-1.1316748E-1,6.419902E-2,-3.1796116E-1,-2.7926898E-1,1.5638003E-1,-2.0819849E-1,-4.662891E-2,4.513046E-2,-2.4211166E-2,-2.721914E-1,2.5788834E-2,1.0517796E-2,-4.3580096E-2,1.0517796E-2,4.7279533E-2,1.4978528E-1,-2.2306982E-1,-2.6337287E-1,-3.5007985E-4,2.1953635E-1,-5.8772587E-3,-2.4211166E-2,3.438511E-2,3.6337414E-1,5.0364073E-2,-4.236954E-2,1.5638003E-1,1.24580756E-1,3.1878465E-1,-2.4211166E-2,4.420943E-2,2.5788834E-2,-3.2281555E-2,4.1262135E-2,-2.3685275E-1,-3.8174614E-1,9.648058E-2,-3.7820736E-1,1.3683252E-1,4.1262135E-2,-3.2281555E-2,-4.0351942E-2,1.3683252E-1,2.5788834E-2,-4.0351942E-2,2.5788834E-2,-2.4211166E-2,-2.4211166E-2,2.5788834E-2,2.8998786E-1,-2.721914E-1,-3.0084312E-1,3.438511E-2,-3.7534133E-1,-8.0212675E-2,2.9652381E-2,-3.067788E-1,3.1264758E-1,-6.2359974E-2,-1.5610264E-1,1.4033845E-1,3.7583882E-1,-2.4211166E-2,4.1262135E-2,-1.3580097E-1,4.1262135E-2,-3.2281555E-2,2.1051385E-1,-1.1860842E-1,4.063951E-1,-7.0186086E-2,-3.631675E-2,1.0517796E-2,2.5788834E-2,-4.089438E-1,3.8683254E-2,-3.2281555E-2,-4.4020303E-2,-1.1316748E-1,3.438511E-2,-2.4211166E-2,3.438511E-2,-2.4211166E-2,-2.4211166E-2,3.307358E-1,2.5788834E-2,-4.0351942E-2,-4.4697534E-2,1.352288E-2,2.5788834E-2,-4.0408707E-1,-4.236954E-2,1.21792644E-1,8.9151435E-2,-1.1555132E-1,-3.7005228E-1,2.5788834E-2,-4.8695393E-2,3.9858413E-1,-2.986954E-1,2.6314723E-1,-2.8387511E-2,-3.7005228E-1,2.374146E-1,-1.3580097E-1,1.2513484E-1,4.0718043E-1,-3.8737863E-2,9.648058E-2,7.761933E-2,3.760113E-1,-4.236954E-2,2.0130461E-1,4.4359684E-1,1.0517796E-2,-3.631675E-2,3.438511E-2,2.5788834E-2,-2.4211166E-2,-4.3784133E-1,2.5788834E-2,2.5788834E-2,-3.2281555E-2,3.760113E-1,-2.4211166E-2,-3.2281555E-2,2.1262136E-1,-4.347492E-1,2.5788834E-2,2.9923716E-1,-4.8695393E-2,1.791262E-1,-1.5801987E-2,-2.5034133E-1,2.870697E-1,2.5788834E-2,-4.438714E-2,2.1262136E-1,-3.631675E-2,4.2592752E-1,1.0517796E-2,-4.1504856E-2,2.5788834E-2,-2.4211166E-2,4.1262135E-2,-1.10012144E-1,3.8683254E-2,2.5788834E-2,-4.438714E-2,3.4835875E-1,-1.2933426E-1,9.648058E-2,-3.8737863E-2,2.9923716E-1,-3.2281555E-2,4.6224952E-1,1.9322121E-1,-3.2281555E-2,3.8683254E-2,-1.7369539E-1,1.9131924E-1,1.2621355E-2,4.789355E-2,-1.1316748E-1,4.1262135E-2,4.8543688E-2,2.1262136E-1,2.5788834E-2,-2.4211166E-2,-4.6808254E-2,1.0517796E-3,1.0517796E-3,4.2104065E-2,3.8683254E-2,-2.4211166E-2,-4.662891E-2,-1.1316748E-2,-2.4211166E-2,4.2981394E-2,-3.631675E-2,2.1262137E-2,-9.708739E-3,2.2820698E-2,2.6490021E-2,-1.7828062E-2,-5.1941755E-3,-4.0176645E-2,-2.4211166E-2,3.6419902E-2,3.8683254E-2,-2.4211166E-2,1.3683252E-2,4.5514565E-2,-2.4211166E-2,2.5788834E-2,-3.35801E-2,1.0525155E-2,-2.4211166E-2,3.8998786E-2,-3.631675E-2,1.3683252E-2,3.8683254E-2,-3.2281555E-2,1.0517796E-3,4.1262135E-2,1.0517796E-3,4.8209276E-2,-3.2281555E-2,3.0612862E-2,1.3683252E-2,-3.8737863E-2,3.222554E-2,-1.8737866E-2,3.438511E-2,-3.2281555E-2,-3.2281555E-2,2.5788834E-2,3.8683254E-2,-2.4211166E-2],"categories":[],"categories_nodes":[],"categories_segments":[],"categories_sizes":[],"default_left":[0,0,0,0,0,0,0,0,0,0,0,0,0,0,0,0,0,0,0,0,0,0,0,0,0,0,0,0,0,0,0,0,0,0,0,0,0,0,0,0,0,0,0,0,0,0,0,0,0,0,0,0,0,0,0,0,0,0,0,0,0,0,0,0,0,0,0,0,0,0,0,0,0,0,0,0,0,0,0,0,0,0,0,0,0,0,0,0,0,0,0,0,0,0,0,0,0,0,0,0,0,0,0,0,0,0,0,0,0,0,0,0,0,0,0,0,0,0,0,0,0,0,0,0,0,0,0,0,0,0,0,0,0,0,0,0,0,0,0,0,0,0,0,0,0,0,0,0,0,0,0,0,0,0,0,0,0,0,0,0,0,0,0,0,0,0,0,0,0,0,0,0,0,0,0,0,0,0,0,0,0,0,0,0,0,0,0,0,0,0,0,0,0,0,0,0,0,0,0,0,0,0,0,0,0,0,0,0,0,0,0,0,0,0,0,0,0,0,0,0,0,0,0,0,0,0,0,0,0,0,0,0,0,0,0,0,0,0,0,0,0,0,0,0,0,0,0,0,0,0,0,0,0,0,0,0,0,0,0,0,0,0,0,0,0,0,0,0,0,0,0,0,0],"id":0,"left_children":[1,3,5,7,9,11,13,15,-1,17,19,21,23,25,27,29,31,33,35,37,39,41,-1,43,45,47,49,-1,-1,51,-1,53,55,57,59,61,63,-1,65,67,69,71,73,75,-1,-1,-1,-1,77,79,81,83,-1,-1,85,87,89,91,93,95,-1,-1,-1,97,-1,99,-1,101,-1,103,105,107,109,111,113,-1,-1,115,117,-1,119,121,123,-1,-1,-1,-1,-1,125,127,129,131,133,-1,-1,-1,135,-1,-1,-1,-1,-1,-1,137,139,141,-1,143,145,147,149,151,153,155,157,159,-1,-1,161,-1,-1,163,165,167,169,-1,171,-1,173,-1,-1,-1,175,-1,-1,-1,-1,-1,177,-1,-1,-1,179,-1,181,-1,183,185,187,189,-1,191,193,195,197,199,201,203,205,207,209,-1,211,213,215,-1,217,219,221,-1,-1,-1,-1,223,-1,-1,-1,225,-1,-1,227,229,-1,231,233,235,237,239,241,-1,-1,243,-1,245,247,-1,-1,-1,-1,249,-1,-1,-1,251,253,255,-1,257,-1,259,261,-1,-1,263,265,267,-1,269,-1,-1,271,-1,-1,-1,-1,-1,-1,-1,-1,-1,-1,-1,-1,-1,-1,-1,-1,-1,-1,-1,-1,-1,-1,-1,-1,-1,-1,-1,-1,-1,-1,-1,-1,-1,-1,-1,-1,-1,-1,-1,-1,-1,-1,-1,-1,-1,-1,-1,-1,-1,-1,-1,-1],"loss_changes":[1.640234E1,2.4725132E0,6.3891377E0,2.4771585E0,2.239421E0,2.1794908E0,1.0635605E0,9.041033E-1,0E0,2.2201438E0,1.148452E0,1.6650438E0,2.8070402E-1,1.0033731E0,7.94961E-1,1.375717E0,6.474705E-1,7.991476E-1,1.1387758E0,1.1390969E0,1.9289833E0,1.7846739E0,0E0,1.7736602E-1,2.4991703E-1,1.0888019E0,1.4984735E0,0E0,0E0,8.9481395E-1,0E0,1.8995094E-1,1.1036255E0,9.168689E-1,2.835946E-1,6.607306E-1,4.102692E-1,0E0,3.3970463E-1,3.578899E-1,1.6147203E0,2.6936672E0,1.4569383E0,3.9704436E-1,0E0,0E0,0E0,0E0,1.0426569E0,1.2311411E0,6.6319823E-1,6.335702E-1,0E0,0E0,3.944149E-1,1.1466621E0,1.067802E0,7.51614E-1,9.927286E-1,6.6174054E-1,0E0,0E0,0E0,5.9136325E-1,0E0,2.4991703E-1,0E0,2.4991703E-1,0E0,1.6171501E0,1.029363E0,1.0363173E0,1.4433007E0,1.305635E0,1.559479E0,0E0,0E0,6.117506E-1,1.0001894E0,0E0,9.927286E-1,1.1743586E0,9.827044E-1,0E0,0E0,0E0,0E0,0E0,1.9129899E-1,6.969452E-1,8.553362E-1,1.802218E-1,3.9704436E-1,0E0,0E0,0E0,3.9704436E-1,0E0,0E0,0E0,0E0,0E0,0E0,5.137143E-1,5.9136325E-1,8.788856E-1,0E0,6.866946E-1,1.5086951E0,1.2457476E0,5.9563065E-1,1.1683543E0,1.0786763E0,9.4585633E-1,9.972769E-1,4.8335552E-1,0E0,0E0,6.217431E-1,0E0,0E0,8.725561E-1,1.5493113E0,3.340633E-1,8.527068E-1,0E0,2.4991703E-1,0E0,7.4881744E-1,0E0,0E0,0E0,3.944149E-1,0E0,0E0,0E0,0E0,0E0,5.8381987E-1,0E0,0E0,0E0,5.3738874E-1,0E0,7.413411E-1,0E0,4.3810186E-1,9.6603304E-1,2.3511758E0,7.170712E-1,0E0,7.346317E-1,3.1385136E-1,6.2511843E-1,5.530392E-1,8.2207644E-1,7.170712E-1,1.143648E0,6.217431E-1,7.985012E-1,6.176357E-1,0E0,8.553362E-1,7.190184E-1,6.6718435E-1,0E0,5.783211E-1,9.9730015E-2,2.4991703E-1,0E0,0E0,0E0,0E0,4.3880844E-1,0E0,0E0,0E0,2.9181433E-1,0E0,0E0,4.8975453E-1,2.5151157E-1,0E0,5.98876E-1,7.346317E-1,7.6777864E-1,2.2364159E0,9.404974E-1,5.371462E-1,0E0,0E0,4.8975453E-1,0E0,1.74232E-1,2.4991703E-1,0E0,0E0,0E0,0E0,1.0074264E0,0E0,0E0,0E0,6.1061645E-1,4.853636E-1,8.553362E-1,0E0,2.2481364E-1,0E0,4.1622925E-1,9.145244E-1,0E0,0E0,5.8384293E-1,9.03333E-1,6.665339E-1,0E0,3.944149E-1,0E0,0E0,4.8975453E-1,0E0,0E0,0E0,0E0,0E0,0E0,0E0,0E0,0E0,0E0,0E0,0E0,0E0,0E0,0E0,0E0,0E0,0E0,0E0,0E0,0E0,0E0,0E0,0E0,0E0,0E0,0E0,0E0,0E0,0E0,0E0,0E0,0E0,0E0,0E0,0E0,0E0,0E0,0E0,0E0,0E0,0E0,0E0,0E0,0E0,0E0,0E0,0E0,0E0,0E0,0E0,0E0],"parents":[2147483647,0,0,1,1,2,2,3,3,4,4,5,5,6,6,7,7,9,9,10,10,11,11,12,12,13,13,14,14,15,15,16,16,17,17,18,18,19,19,20,20,21,21,23,23,24,24,25,25,26,26,29,29,31,31,32,32,33,33,34,34,35,35,36,36,38,38,39,39,40,40,41,41,42,42,43,43,48,48,49,49,50,50,51,51,54,54,55,55,56,56,57,57,58,58,59,59,63,63,65,65,67,67,69,69,70,70,71,71,72,72,73,73,74,74,77,77,78,78,80,80,81,81,82,82,88,88,89,89,90,90,91,91,92,92,96,96,103,103,104,104,105,105,107,107,108,108,109,109,110,110,111,111,112,112,113,113,114,114,115,115,118,118,121,121,122,122,123,123,124,124,126,126,128,128,132,132,138,138,142,142,144,144,146,146,147,147,148,148,149,149,151,151,152,152,153,153,154,154,155,155,156,156,157,157,158,158,159,159,160,160,162,162,163,163,164,164,166,166,167,167,168,168,173,173,177,177,180,180,181,181,183,183,184,184,185,185,186,186,187,187,188,188,191,191,193,193,194,194,199,199,203,203,204,204,205,205,207,207,209,209,210,210,213,213,214,214,215,215,217,217,220,220],"right_children":[2,4,6,8,10,12,14,16,-1,18,20,22,24,26,28,30,32,34,36,38,40,42,-1,44,46,48,50,-1,-1,52,-1,54,56,58,60,62,64,-1,66,68,70,72,74,76,-1,-1,-1,-1,78,80,82,84,-1,-1,86,88,90,92,94,96,-1,-1,-1,98,-1,100,-1,102,-1,104,106,108,110,112,114,-1,-1,116,118,-1,120,122,124,-1,-1,-1,-1,-1,126,128,130,132,134,-1,-1,-1,136,-1,-1,-1,-1,-1,-1,138,140,142,-1,144,146,148,150,152,154,156,158,160,-1,-1,162,-1,-1,164,166,168,170,-1,172,-1,174,-1,-1,-1,176,-1,-1,-1,-1,-1,178,-1,-1,-1,180,-1,182,-1,184,186,188,190,-1,192,194,196,198,200,202,204,206,208,210,-1,212,214,216,-1,218,220,222,-1,-1,-1,-1,224,-1,-1,-1,226,-1,-1,228,230,-1,232,234,236,238,240,242,-1,-1,244,-1,246,248,-1,-1,-1,-1,250,-1,-1,-1,252,254,256,-1,258,-1,260,262,-1,-1,264,266,268,-1,270,-1,-1,272,-1,-1,-1,-1,-1,-1,-1,-1,-1,-1,-1,-1,-1,-1,-1,-1,-1,-1,-1,-1,-1,-1,-1,-1,-1,-1,-1,-1,-1,-1,-1,-1,-1,-1,-1,-1,-1,-1,-1,-1,-1,-1,-1,-1,-1,-1,-1,-1,-1,-1,-1,-1],"split_conditions":[-4.9708688E-1,-7.706894E-2,3.934791E-1,1.7194196E0,-1.6715522E-1,1.7019502E0,2.1146445E0,-1.1368486E0,4.1262135E-2,-1.3797319E-1,-9.964731E-1,1.4190024E0,1.2440324E0,4.105278E-2,8.840504E-1,-2.596921E-1,1.7664582E-1,-4.0159377E-1,-2.0638008E-1,-1.7585583E0,-6.8986595E-1,1.6430956E-1,4.513046E-2,1.8176891E0,1.8176891E0,-1.8130362E0,-4.0159377E-1,-2.4211166E-2,4.923323E-2,9.620904E-1,-4.1504856E-2,6.9183517E-1,4.19067E-1,1.0502763E0,-6.297078E-1,-3.9849746E-1,8.602735E-1,3.438511E-2,-9.7752556E-2,-9.7603256E-1,5.536205E-1,-8.4954137E-1,-6.51929E-1,-2.962267E-1,4.7279533E-2,2.5788834E-2,-2.4211166E-2,-3.2281555E-2,1.7425503E0,-7.2165716E-1,1.6199075E0,-1.7171481E0,-3.2281555E-2,-4.192346E-2,-1.4229972E0,-1.225671E-1,-6.411147E-1,-5.5331016E-1,-4.445803E-1,-6.529739E-1,-4.662891E-2,4.513046E-2,-2.4211166E-2,-2.0666065E0,2.5788834E-2,1.0502763E0,-4.3580096E-2,-1.1915196E0,4.7279533E-2,6.523127E-1,2.49766E0,7.760399E-1,1.4985089E0,1.6518193E0,-1.7885414E-1,-2.4211166E-2,3.438511E-2,1.7402625E0,9.9515736E-1,-4.236954E-2,1.5218073E0,1.1293361E0,9.7663546E-1,-2.4211166E-2,4.420943E-2,2.5788834E-2,-3.2281555E-2,4.1262135E-2,-4.2163166E-1,-1.7634165E0,3.0708923E0,-5.1416856E-1,-6.529739E-1,4.1262135E-2,-3.2281555E-2,-4.0351942E-2,-9.6004206E-1,2.5788834E-2,-4.0351942E-2,2.5788834E-2,-2.4211166E-2,-2.4211166E-2,2.5788834E-2,-1.0471538E0,-2.6061603E-1,5.7744336E-1,3.438511E-2,-1.5279254E0,9.9515736E-1,9.148439E-2,2.5858173E0,-8.8431615E-1,3.130847E-1,1.10455446E-1,1.686339E-1,4.5480052E-1,-2.4211166E-2,4.1262135E-2,1.5218073E0,4.1262135E-2,-3.2281555E-2,6.387648E-1,2.0527166E-1,1.8775096E0,2.2081347E0,-3.631675E-2,8.732122E-2,2.5788834E-2,4.5291877E0,3.8683254E-2,-3.2281555E-2,-4.4020303E-2,-4.447659E-1,3.438511E-2,-2.4211166E-2,3.438511E-2,-2.4211166E-2,-2.4211166E-2,1.7111714E0,2.5788834E-2,-4.0351942E-2,-4.4697534E-2,3.190589E-1,2.5788834E-2,8.1213707E-1,-4.236954E-2,3.6493188E-1,-1.9929461E-1,8.287585E-1,-9.678017E-1,2.5788834E-2,1.0502763E0,7.362789E-1,2.8222098E0,5.6702167E-1,7.760399E-1,-9.7603256E-1,9.2015326E-1,-2.4564208E-2,1.4704727E0,1.6518193E0,-3.8737863E-2,1.9469551E0,3.1866345E-1,-9.001758E-2,-4.236954E-2,1.3852052E-1,1.7019502E0,8.9177865E-1,-3.631675E-2,3.438511E-2,2.5788834E-2,-2.4211166E-2,2.2896342E0,2.5788834E-2,2.5788834E-2,-3.2281555E-2,-8.8327825E-1,-2.4211166E-2,-3.2281555E-2,4.459689E0,3.269467E-1,2.5788834E-2,-1.402856E0,-5.6722313E-1,-5.1538104E-1,-4.2163166E-1,-4.0369934E-1,-1.3470006E0,2.5788834E-2,-4.438714E-2,-9.9998724E-1,-3.631675E-2,-1.3058954E0,-2.656093E-1,-4.1504856E-2,2.5788834E-2,-2.4211166E-2,4.1262135E-2,1.0497813E0,3.8683254E-2,2.5788834E-2,-4.438714E-2,4.0593684E-1,1.4985089E0,6.9183517E-1,-3.8737863E-2,4.2882347E-1,-3.2281555E-2,-1.3724259E0,-3.413171E-2,-3.2281555E-2,3.8683254E-2,-4.8277624E-2,1.105227E0,4.1517785E-1,4.789355E-2,-7.706894E-2,4.1262135E-2,4.8543688E-2,5.731399E-1,2.5788834E-2,-2.4211166E-2,-4.6808254E-2,1.0517796E-3,1.0517796E-3,4.2104065E-2,3.8683254E-2,-2.4211166E-2,-4.662891E-2,-1.1316748E-2,-2.4211166E-2,4.2981394E-2,-3.631675E-2,2.1262137E-2,-9.708739E-3,2.2820698E-2,2.6490021E-2,-1.7828062E-2,-5.1941755E-3,-4.0176645E-2,-2.4211166E-2,3.6419902E-2,3.8683254E-2,-2.4211166E-2,1.3683252E-2,4.5514565E-2,-2.4211166E-2,2.5788834E-2,-3.35801E-2,1.0525155E-2,-2.4211166E-2,3.8998786E-2,-3.631675E-2,1.3683252E-2,3.8683254E-2,-3.2281555E-2,1.0517796E-3,4.1262135E-2,1.0517796E-3,4.8209276E-2,-3.2281555E-2,3.0612862E-2,1.3683252E-2,-3.8737863E-2,3.222554E-2,-1.8737866E-2,3.438511E-2,-3.2281555E-2,-3.2281555E-2,2.5788834E-2,3.8683254E-2,-2.4211166E-2],"split_indices":[0,1,3,4,2,0,4,6,0,3,3,7,2,2,3,2,5,7,5,4,3,1,0,0,0,6,7,0,0,5,0,4,5,1,6,2,5,0,2,3,6,4,4,4,0,0,0,0,3,1,3,2,0,0,0,6,1,7,3,2,0,0,0,6,0,1,0,0,0,4,6,0,2,11,3,0,0,5,8,0,4,3,5,0,0,0,0,0,2,2,13,2,2,0,0,0,0,0,0,0,0,0,0,4,3,3,0,3,8,7,2,2,0,2,3,3,0,0,4,0,0,3,7,4,5,0,2,0,7,0,0,0,2,0,0,0,0,0,5,0,0,0,7,0,7,0,2,3,5,6,0,1,7,1,1,0,3,2,5,0,11,0,3,2,5,0,4,0,0,0,0,0,0,12,0,0,0,6,0,0,2,5,0,4,3,7,2,3,2,0,0,2,0,6,0,0,0,0,0,10,0,0,0,1,2,4,0,0,0,5,0,0,0,6,2,4,0,1,0,0,2,0,0,0,0,0,0,0,0,0,0,0,0,0,0,0,0,0,0,0,0,0,0,0,0,0,0,0,0,0,0,0,0,0,0,0,0,0,0,0,0,0,0,0,0,0,0,0,0,0,0,0,0],"split_type":[0,0,0,0,0,0,0,0,0,0,0,0,0,0,0,0,0,0,0,0,0,0,0,0,0,0,0,0,0,0,0,0,0,0,0,0,0,0,0,0,0,0,0,0,0,0,0,0,0,0,0,0,0,0,0,0,0,0,0,0,0,0,0,0,0,0,0,0,0,0,0,0,0,0,0,0,0,0,0,0,0,0,0,0,0,0,0,0,0,0,0,0,0,0,0,0,0,0,0,0,0,0,0,0,0,0,0,0,0,0,0,0,0,0,0,0,0,0,0,0,0,0,0,0,0,0,0,0,0,0,0,0,0,0,0,0,0,0,0,0,0,0,0,0,0,0,0,0,0,0,0,0,0,0,0,0,0,0,0,0,0,0,0,0,0,0,0,0,0,0,0,0,0,0,0,0,0,0,0,0,0,0,0,0,0,0,0,0,0,0,0,0,0,0,0,0,0,0,0,0,0,0,0,0,0,0,0,0,0,0,0,0,0,0,0,0,0,0,0,0,0,0,0,0,0,0,0,0,0,0,0,0,0,0,0,0,0,0,0,0,0,0,0,0,0,0,0,0,0,0,0,0,0,0,0,0,0,0,0,0,0,0,0,0,0,0,0,0,0,0,0,0,0],"sum_hessian":[8.24E2,2.79E2,5.45E2,1.37E2,1.42E2,3.46E2,1.99E2,1.33E2,4E0,7.1E1,7.1E1,3.3E2,1.6E1,1.77E2,2.2E1,1.5E1,1.18E2,5.6E1,1.5E1,1.3E1,5.8E1,3.23E2,7E0,1.4E1,2E0,8.3E1,9.4E1,1E0,2.1E1,9E0,6E0,7.1E1,4.7E1,2.2E1,3.4E1,8E0,7E0,2E0,1.1E1,1.3E1,4.5E1,2.06E2,1.17E2,3E0,1.1E1,1E0,1E0,2E0,8.1E1,1.3E1,8.1E1,7E0,2E0,6.8E1,3E0,9E0,3.8E1,1.6E1,6E0,8E0,2.6E1,7E0,1E0,6E0,1E0,2E0,9E0,2E0,1.1E1,2.5E1,2E1,5.1E1,1.55E2,4.8E1,6.9E1,1E0,2E0,6.8E1,1.3E1,7E0,6E0,5.4E1,2.7E1,1E0,6E0,1E0,2E0,4E0,5E0,3.3E1,5E0,1.3E1,3E0,4E0,2E0,5E0,3E0,1E0,5E0,1E0,1E0,1E0,1E0,1.9E1,6E0,1.8E1,2E0,3.1E1,2E1,1.42E2,1.3E1,3.6E1,1.2E1,3.4E1,3.5E1,6.7E1,1E0,4E0,9E0,4E0,2E0,4E1,1.4E1,2.2E1,5E0,3E0,2E0,1E0,3.2E1,3E0,2E0,1E1,3E0,2E0,1E0,2E0,1E0,1E0,1.8E1,1E0,5E0,1.2E1,6E0,1E0,3E1,7E0,1.3E1,1.01E2,4.1E1,1.2E1,1E0,7E0,2.9E1,7E0,5E0,2.2E1,1.2E1,2.6E1,9E0,8E0,5.9E1,4E0,5E0,2.3E1,1.7E1,7E0,7E0,2E1,2E0,3E0,2E0,1E0,1E0,3.1E1,1E0,1E0,2E0,1.7E1,1E0,2E0,4E0,2.9E1,1E0,6E0,7E0,5.4E1,4.7E1,3.1E1,1E1,1E0,1.1E1,4E0,3E0,2.7E1,2E0,6E0,1E0,1E0,4E0,1.9E1,3E0,1E0,1.1E1,2E1,6E0,5E0,4E0,6E0,2E0,4.6E1,1.3E1,2E0,3E0,7E0,1.6E1,4E0,1.3E1,3E0,4E0,1.6E1,4E0,1E0,1E0,2.9E1,2E0,2E0,1.5E1,3E0,1E0,2.6E1,3E0,1E0,5E0,3E0,4E0,8E0,4.6E1,1.7E1,3E1,1.4E1,1.7E1,1E0,9E0,3E0,1E0,3E0,2.4E1,1E0,1E0,9E0,1E1,1E0,1.9E1,3E0,3E0,3E0,2E0,2E0,4E0,2E0,4.4E1,2E0,1.1E1,3E0,4E0,1.2E1,4E0,2E0,2E0,2E0,1E0,3E0,1E0],"tree_param":{"num_deleted":"0","num_feature":"24","num_nodes":"273","size_leaf_vector":"1"}},{"base_weights":[2.7037027E-5,-1.7754786E-1,9.109104E-2,-2.6338354E-1,-9.3471825E-2,1.6901776E-2,2.1935394E-1,-2.8541034E-1,3.7961166E-2,-2.0580402E-1,2.0158594E-2,5.398822E-4,3.3448327E-1,1.9104701E-1,3.8641632E-1,-7.442517E-2,-3.113797E-1,-2.879477E-1,9.969565E-2,-2.123593E-1,7.499066E-2,-9.616737E-3,4.1181546E-2,3.7708265E-1,9.991904E-3,2.2152796E-1,-7.4193017E-3,-2.3000607E-2,4.1776553E-1,1.465508E-1,-3.7947293E-2,-3.6792064E-1,-2.2008125E-1,-1.4430349E-1,-3.7411544E-1,3.1494576E-1,-1.5492265E-1,3.2092776E-2,-3.2798445E-1,3.7024602E-1,-1.6499903E-2,-5.9396993E-2,8.015646E-2,1.2569277E-1,4.2945575E-2,2.4499392E-2,-2.3000607E-2,1.7500427E-1,3.4509304E-1,3.8551696E-2,-1.05282396E-1,-2.2092689E-2,4.508278E-2,2.9617393E-1,-3.0129451E-2,-3.779187E-1,-1.0347392E-1,5.8431424E-2,-2.8585166E-1,-2.5404933E-1,1.4283691E-1,-1.9073176E-1,-4.213872E-2,4.1181546E-2,-2.3000607E-2,-2.4705271E-1,2.4499392E-2,1.6448209E-2,-3.985158E-2,9.991904E-3,4.2945575E-2,1.3404408E-1,-2.0210198E-1,-2.3790137E-1,-2.7278895E-4,1.9274075E-1,6.752571E-4,-2.3000607E-2,3.2092776E-2,2.067478E-1,-2.639471E-2,3.6536428E-1,-2.2274273E-2,-3.8357403E-2,4.138359E-2,-2.3000607E-2,4.042005E-2,-3.8766018E-1,-2.36257E-1,2.4499392E-2,-3.0129451E-2,3.7961166E-2,-2.1895732E-1,-3.4340033E-1,8.789948E-2,-3.439947E-1,1.2427183E-1,3.8236246E-2,-3.0398464E-2,-3.6989283E-2,1.2569277E-1,2.4499392E-2,-3.6989283E-2,2.4499392E-2,-2.2032162E-2,-2.3000607E-2,2.4499392E-2,2.6072574E-1,-2.4705271E-1,-2.7404866E-1,3.2092776E-2,-3.380062E-1,-7.403206E-2,-7.977342E-2,9.338923E-2,3.17243E-2,3.396069E-1,-1.4057724E-1,1.4190845E-1,7.2737634E-3,2.4655169E-1,-2.9562855E-1,2.15857E-1,4.271261E-1,1.4354232E-1,3.5297345E-2,-7.568397E-2,-2.36257E-1,-3.9945248E-1,2.7885009E-2,-3.685832E-2,1.4027099E-2,-3.389563E-2,2.4499392E-2,-3.6865452E-1,3.578201E-2,-3.0129451E-2,-4.0018454E-2,-1.0347392E-1,3.1634305E-2,-2.2597088E-2,3.2092776E-2,-2.3000607E-2,-2.3000607E-2,2.9865932E-1,2.4499392E-2,-3.6989283E-2,-4.057161E-2,9.626389E-3,2.4499392E-2,-3.6471567E-1,-3.8662206E-2,1.0987879E-1,1.3466537E-1,-1.9705608E-1,2.5972065E-1,3.8257882E-2,2.629777E-1,-1.5224081E-1,4.0581045E-1,-1.09414145E-1,-2.486927E-2,-3.344777E-1,2.3928234E-1,-1.2545449E-1,2.607437E-1,-3.9207526E-2,6.5114185E-2,2.8405187E-1,-1.0746494E-1,-3.870337E-2,-1.0746494E-1,3.954288E-2,-3.5868485E-3,4.5801945E-2,-1.8512836E-1,3.9351087E-2,1.3989694E-1,-3.6236044E-2,2.7885009E-2,-3.685832E-2,-4.317689E-2,-2.896561E-1,-2.2395328E-2,2.4499392E-2,-3.954871E-1,2.4499392E-2,2.4499392E-2,-3.0129451E-2,3.4080774E-1,-2.3000607E-2,-3.0129451E-2,1.9425365E-1,-3.932058E-1,2.4499392E-2,2.7199492E-1,-4.5707665E-2,3.085779E-1,-9.855538E-2,-3.0574638E-1,7.02773E-2,-3.271862E-2,3.5353315E-1,1.0112153E-1,-2.0066895E-1,3.3906612E-1,-2.4895329E-2,-3.9018888E-2,1.414485E-1,4.477737E-2,-9.2148185E-3,-3.0263958E-2,2.3513107E-2,-1.0016368E-1,3.578201E-2,2.4499392E-2,-4.0318318E-2,3.52939E-1,-1.19634196E-1,-3.576796E-2,8.897553E-2,-2.2274273E-2,3.3136663E-1,1.4570308E-1,-3.0580908E-2,-2.2092689E-2,2.9521963E-1,2.3378372E-2,-2.991424E-2,2.3378372E-2,-2.991424E-2,-2.4263754E-2,2.3725728E-2,2.3725728E-2,-3.500391E-2,3.5297345E-2,-1.0815383E-1,-3.524987E-3,-4.0209077E-2,-4.2283457E-2,9.816607E-4,9.816607E-4,3.8156807E-2,3.578201E-2,-2.3000607E-2,-4.213872E-2,-1.0467993E-2,-2.3000607E-2,3.939961E-2,-3.3592995E-2,1.9561168E-2,-1.2327929E-2,4.0316794E-2,-2.9919265E-2,1.4482367E-2,-3.4885306E-2,3.421869E-2,2.8981525E-2,-3.8051143E-2,4.0642448E-2,-2.199181E-2,-1.9408E-2,1.7019428E-2,1.9164493E-2,-4.207815E-2,4.2593107E-2,-2.2135923E-2,-3.0263958E-2,3.7961166E-2,-2.6486894E-2,2.5104672E-2,-3.055789E-2,9.5683215E-3,4.401027E-2,1.6718067E-2,-3.3592995E-2,1.2657008E-2,-1.0508344E-2,3.180623E-2,4.1728E-2,-2.2092689E-2,-1.2480263E-2,2.3933506E-2,3.136386E-2,1.146434E-3,2.3361651E-2,-2.9994944E-2],"categories":[],"categories_nodes":[],"categories_segments":[],"categories_sizes":[],"default_left":[0,0,0,0,0,0,0,0,0,0,0,0,0,0,0,0,0,0,0,0,0,0,0,0,0,0,0,0,0,0,0,0,0,0,0,0,0,0,0,0,0,0,0,0,0,0,0,0,0,0,0,0,0,0,0,0,0,0,0,0,0,0,0,0,0,0,0,0,0,0,0,0,0,0,0,0,0,0,0,0,0,0,0,0,0,0,0,0,0,0,0,0,0,0,0,0,0,0,0,0,0,0,0,0,0,0,0,0,0,0,0,0,0,0,0,0,0,0,0,0,0,0,0,0,0,0,0,0,0,0,0,0,0,0,0,0,0,0,0,0,0,0,0,0,0,0,0,0,0,0,0,0,0,0,0,0,0,0,0,0,0,0,0,0,0,0,0,0,0,0,0,0,0,0,0,0,0,0,0,0,0,0,0,0,0,0,0,0,0,0,0,0,0,0,0,0,0,0,0,0,0,0,0,0,0,0,0,0,0,0,0,0,0,0,0,0,0,0,0,0,0,0,0,0,0,0,0,0,0,0,0,0,0,0,0,0,0,0,0,0,0,0,0,0,0,0,0,0,0,0,0,0,0,0,0,0,0,0,0,0,0,0,0,0,0,0,0,0,0,0,0,0,0,0,0,0,0,0,0,0,0,0,0,0,0,0,0],"id":1,"left_children":[1,3,5,7,9,11,13,15,-1,17,19,21,23,25,27,29,31,33,35,37,39,41,-1,43,45,47,49,-1,51,53,-1,55,57,59,61,63,65,-1,67,69,71,73,75,77,-1,-1,-1,79,81,-1,83,-1,-1,85,-1,87,89,91,93,95,97,99,-1,-1,-1,101,-1,103,-1,105,-1,107,109,111,113,115,117,-1,-1,119,121,123,-1,-1,125,-1,-1,127,129,-1,-1,-1,131,133,135,137,139,-1,-1,-1,141,-1,-1,-1,-1,-1,-1,143,145,147,-1,149,151,153,155,157,159,161,163,165,167,169,171,173,175,-1,177,179,181,-1,-1,183,-1,-1,185,-1,-1,-1,187,-1,-1,-1,-1,-1,189,-1,-1,-1,191,-1,193,-1,195,197,199,201,203,205,207,209,211,213,215,217,219,221,-1,223,225,227,-1,229,-1,231,-1,233,-1,235,-1,-1,-1,-1,237,-1,-1,239,-1,-1,-1,241,-1,-1,243,245,-1,247,249,251,253,255,257,-1,259,261,263,265,-1,-1,267,-1,269,-1,-1,271,-1,-1,-1,273,275,-1,277,-1,279,281,-1,-1,283,-1,-1,-1,-1,-1,-1,-1,-1,-1,285,-1,-1,-1,-1,-1,-1,-1,-1,-1,-1,-1,-1,-1,-1,-1,-1,-1,-1,-1,-1,-1,-1,-1,-1,-1,-1,-1,-1,-1,-1,-1,-1,-1,-1,-1,-1,-1,-1,-1,-1,-1,-1,-1,-1,-1,-1,-1,-1,-1,-1],"loss_changes":[1.3356984E1,1.9960642E0,5.1918817E0,2.0628576E0,1.8294512E0,1.8029128E0,8.7198067E-1,7.110319E-1,0E0,1.8355379E0,9.338844E-1,1.3866036E0,2.3122549E-1,1.0481982E0,6.371703E-1,1.1341438E0,5.3331566E-1,6.515312E-1,9.2569804E-1,9.685188E-1,1.5998807E0,1.4526953E0,0E0,1.435113E-1,2.2555012E-1,8.019123E-1,9.6348315E-1,0E0,6.697488E-1,7.593157E-1,0E0,1.5126038E-1,8.959613E-1,7.610742E-1,2.2303867E-1,5.698242E-1,3.5528117E-1,0E0,2.9807436E-1,2.9433632E-1,1.3123891E0,2.2057061E0,1.0378768E0,3.5159472E-1,0E0,0E0,0E0,7.150929E-1,5.4181194E-1,0E0,8.3219206E-1,0E0,0E0,5.477E-1,0E0,3.6315918E-3,3.495518E-1,9.740365E-1,8.6903167E-1,6.2122905E-1,8.6540854E-1,5.5671144E-1,0E0,0E0,0E0,5.1372296E-1,0E0,2.1631563E-1,0E0,2.2555012E-1,0E0,1.3196406E0,8.781852E-1,8.279903E-1,1.1839479E0,1.124324E0,1.3964674E0,0E0,0E0,7.604313E-1,1.1073712E0,4.729948E-1,0E0,0E0,5.3739333E-1,0E0,0E0,1.810646E-2,5.7991457E-1,0E0,0E0,0E0,1.7250192E-1,5.9553814E-1,7.381181E-1,1.4779878E-1,3.4057045E-1,0E0,0E0,0E0,3.5159472E-1,0E0,0E0,0E0,0E0,0E0,0E0,4.409976E-1,5.1372296E-1,7.1357024E-1,0E0,5.8764577E-1,1.249744E0,2.1894326E0,6.5947926E-1,1.0610574E0,7.8757095E-1,7.7693576E-1,9.412149E-1,1.8230215E0,5.258188E-1,9.600043E-2,5.650302E-1,4.008274E-1,8.9442325E-1,0E0,7.305149E-1,5.7991457E-1,7.718468E-2,0E0,0E0,2.197639E-1,0E0,0E0,6.402626E-1,0E0,0E0,0E0,3.495518E-1,0E0,0E0,0E0,0E0,0E0,5.017538E-1,0E0,0E0,0E0,4.6035886E-1,0E0,6.3482475E-1,0E0,3.6555526E-1,1.2877723E0,1.6486533E0,1.1067367E0,8.614014E-1,5.1288396E-1,1.0335509E0,3.8727403E-1,3.374595E-1,6.98571E-1,6.163447E-1,1.1028483E0,5.2978516E-1,4.4940704E-1,0E0,4.9294174E-1,4.3742847E-1,3.315733E-1,0E0,3.315733E-1,0E0,2.302894E-1,0E0,4.3132895E-1,0E0,4.08152E-1,0E0,0E0,0E0,0E0,4.434917E-1,0E0,0E0,3.588395E-1,0E0,0E0,0E0,2.3909807E-1,0E0,0E0,4.2927405E-1,1.99821E-1,0E0,5.1933444E-1,6.260017E-1,7.8499126E-1,7.269628E-1,1.2365825E0,1.7926869E0,0E0,5.746691E-1,9.505987E-1,1.1168792E0,5.810969E-1,0E0,0E0,8.552433E-1,0E0,2.661053E-1,0E0,0E0,8.338374E-1,0E0,0E0,0E0,2.5025105E-1,4.152892E-1,0E0,3.0016115E-1,0E0,5.666822E-1,3.5913342E-1,0E0,0E0,3.3612537E-1,0E0,0E0,0E0,0E0,0E0,0E0,0E0,0E0,0E0,3.3227333E-1,0E0,0E0,0E0,0E0,0E0,0E0,0E0,0E0,0E0,0E0,0E0,0E0,0E0,0E0,0E0,0E0,0E0,0E0,0E0,0E0,0E0,0E0,0E0,0E0,0E0,0E0,0E0,0E0,0E0,0E0,0E0,0E0,0E0,0E0,0E0,0E0,0E0,0E0,0E0,0E0,0E0,0E0,0E0,0E0,0E0,0E0,0E0,0E0,0E0,0E0],"parents":[2147483647,0,0,1,1,2,2,3,3,4,4,5,5,6,6,7,7,9,9,10,10,11,11,12,12,13,13,14,14,15,15,16,16,17,17,18,18,19,19,20,20,21,21,23,23,24,24,25,25,26,26,28,28,29,29,31,31,32,32,33,33,34,34,35,35,36,36,38,38,39,39,40,40,41,41,42,42,43,43,47,47,48,48,50,50,53,53,55,55,56,56,57,57,58,58,59,59,60,60,61,61,65,65,67,67,69,69,71,71,72,72,73,73,74,74,75,75,76,76,79,79,80,80,81,81,84,84,87,87,88,88,92,92,93,93,94,94,95,95,96,96,100,100,107,107,108,108,109,109,111,111,112,112,113,113,114,114,115,115,116,116,117,117,118,118,119,119,120,120,121,121,122,122,123,123,124,124,126,126,127,127,128,128,131,131,134,134,138,138,144,144,148,148,150,150,152,152,153,153,154,154,155,155,156,156,157,157,158,158,159,159,160,160,161,161,162,162,163,163,164,164,165,165,167,167,168,168,169,169,171,171,173,173,175,175,177,177,182,182,185,185,189,189,192,192,193,193,195,195,196,196,197,197,198,198,199,199,200,200,202,202,203,203,204,204,205,205,208,208,210,210,213,213,217,217,218,218,220,220,222,222,223,223,226,226,236,236],"right_children":[2,4,6,8,10,12,14,16,-1,18,20,22,24,26,28,30,32,34,36,38,40,42,-1,44,46,48,50,-1,52,54,-1,56,58,60,62,64,66,-1,68,70,72,74,76,78,-1,-1,-1,80,82,-1,84,-1,-1,86,-1,88,90,92,94,96,98,100,-1,-1,-1,102,-1,104,-1,106,-1,108,110,112,114,116,118,-1,-1,120,122,124,-1,-1,126,-1,-1,128,130,-1,-1,-1,132,134,136,138,140,-1,-1,-1,142,-1,-1,-1,-1,-1,-1,144,146,148,-1,150,152,154,156,158,160,162,164,166,168,170,172,174,176,-1,178,180,182,-1,-1,184,-1,-1,186,-1,-1,-1,188,-1,-1,-1,-1,-1,190,-1,-1,-1,192,-1,194,-1,196,198,200,202,204,206,208,210,212,214,216,218,220,222,-1,224,226,228,-1,230,-1,232,-1,234,-1,236,-1,-1,-1,-1,238,-1,-1,240,-1,-1,-1,242,-1,-1,244,246,-1,248,250,252,254,256,258,-1,260,262,264,266,-1,-1,268,-1,270,-1,-1,272,-1,-1,-1,274,276,-1,278,-1,280,282,-1,-1,284,-1,-1,-1,-1,-1,-1,-1,-1,-1,286,-1,-1,-1,-1,-1,-1,-1,-1,-1,-1,-1,-1,-1,-1,-1,-1,-1,-1,-1,-1,-1,-1,-1,-1,-1,-1,-1,-1,-1,-1,-1,-1,-1,-1,-1,-1,-1,-1,-1,-1,-1,-1,-1,-1,-1,-1,-1,-1,-1,-1],"split_conditions":[-4.9708688E-1,-7.706894E-2,3.934791E-1,1.7194196E0,-1.6715522E-1,1.7019502E0,1.996077E0,-1.1368486E0,3.7961166E-2,-1.3797319E-1,-9.964731E-1,1.4190024E0,1.2440324E0,1.6008523E0,8.840504E-1,-2.596921E-1,1.7664582E-1,-4.0159377E-1,-2.0638008E-1,-1.7585583E0,-6.8986595E-1,4.0593684E-1,4.1181546E-2,1.8176891E0,1.8176891E0,1.6430956E-1,-1.498705E-1,-2.3000607E-2,-7.0502645E-1,9.620904E-1,-3.7947293E-2,6.9183517E-1,4.19067E-1,-5.5331016E-1,-6.297078E-1,-3.9849746E-1,8.602735E-1,3.2092776E-2,-1.0669751E0,-9.7603256E-1,5.536205E-1,-8.4954137E-1,-6.51929E-1,-2.962267E-1,4.2945575E-2,2.4499392E-2,-2.3000607E-2,-3.9948744E-1,1.6481422E0,3.8551696E-2,1.2315385E0,-2.2092689E-2,4.508278E-2,-1.7171481E0,-3.0129451E-2,1.3143317E0,-1.4229972E0,-1.225671E-1,-6.411147E-1,1.0502763E0,-4.46377E-1,-6.529739E-1,-4.213872E-2,4.1181546E-2,-2.3000607E-2,-2.0666065E0,2.4499392E-2,-9.6004206E-1,-3.985158E-2,-1.1915196E0,4.2945575E-2,6.523127E-1,2.49766E0,7.760399E-1,2.1495946E-2,1.0497813E0,-1.7885414E-1,-2.3000607E-2,3.2092776E-2,4.2882347E-1,5.337453E-1,4.5746878E-1,-2.2274273E-2,-3.8357403E-2,-3.445601E-1,-2.3000607E-2,4.042005E-2,-6.291683E-1,-8.380477E-1,2.4499392E-2,-3.0129451E-2,3.7961166E-2,-2.810565E-1,-1.7634165E0,3.0708923E0,-5.1416856E-1,-1.3030801E0,3.8236246E-2,-3.0398464E-2,-3.6989283E-2,-9.6004206E-1,2.4499392E-2,-3.6989283E-2,2.4499392E-2,-2.2032162E-2,-2.3000607E-2,2.4499392E-2,-1.0471538E0,-2.6061603E-1,5.7744336E-1,3.2092776E-2,-1.5279254E0,9.9515736E-1,-3.8325888E-1,2.6391715E-1,-2.9161403E-1,6.323974E-1,1.10455446E-1,1.686339E-1,-6.8199635E-2,-9.678017E-1,5.7744336E-1,-5.7924952E-2,-7.704964E-1,-2.1194832E-1,3.5297345E-2,9.148439E-2,-1.5783427E0,-4.0758964E-1,2.7885009E-2,-3.685832E-2,-1.3072585E0,-3.389563E-2,2.4499392E-2,4.5291877E0,3.578201E-2,-3.0129451E-2,-4.0018454E-2,-4.447659E-1,3.1634305E-2,-2.2597088E-2,3.2092776E-2,-2.3000607E-2,-2.3000607E-2,1.7111714E0,2.4499392E-2,-3.6989283E-2,-4.057161E-2,3.190589E-1,2.4499392E-2,8.1213707E-1,-3.8662206E-2,3.6493188E-1,-1.225671E-1,1.0075175E0,-8.329493E-1,1.0075175E0,1.2903008E0,3.130847E-1,-1.3797319E-1,-9.537188E-1,7.760399E-1,-9.7603256E-1,9.2015326E-1,-3.257356E-1,-1.2313294E0,-3.9207526E-2,1.4522403E0,-1.2360338E0,8.9177865E-1,-3.870337E-2,-1.5786016E-1,3.954288E-2,4.2882347E-1,4.5801945E-2,-3.413171E-2,3.9351087E-2,7.760399E-1,-3.6236044E-2,2.7885009E-2,-3.685832E-2,-4.317689E-2,-6.51929E-1,-2.2395328E-2,2.4499392E-2,2.2896342E0,2.4499392E-2,2.4499392E-2,-3.0129451E-2,-8.8327825E-1,-2.3000607E-2,-3.0129451E-2,4.459689E0,3.269467E-1,2.4499392E-2,-1.402856E0,-5.6722313E-1,-2.656093E-1,-4.9383911E-1,1.567902E0,7.582137E-1,-3.271862E-2,1.4985089E0,-4.3952286E-1,-4.5431662E-1,8.1213707E-1,-2.4895329E-2,-3.9018888E-2,-9.7603256E-1,4.477737E-2,3.130847E-1,-3.0263958E-2,2.3513107E-2,1.0497813E0,3.578201E-2,2.4499392E-2,-4.0318318E-2,5.445623E-1,1.4985089E0,-3.576796E-2,1.0502763E0,-2.2274273E-2,7.665954E-1,-8.611819E-1,-3.0580908E-2,-2.2092689E-2,1.9905193E0,2.3378372E-2,-2.991424E-2,2.3378372E-2,-2.991424E-2,-2.4263754E-2,2.3725728E-2,2.3725728E-2,-3.500391E-2,3.5297345E-2,1.7589421E0,-3.524987E-3,-4.0209077E-2,-4.2283457E-2,9.816607E-4,9.816607E-4,3.8156807E-2,3.578201E-2,-2.3000607E-2,-4.213872E-2,-1.0467993E-2,-2.3000607E-2,3.939961E-2,-3.3592995E-2,1.9561168E-2,-1.2327929E-2,4.0316794E-2,-2.9919265E-2,1.4482367E-2,-3.4885306E-2,3.421869E-2,2.8981525E-2,-3.8051143E-2,4.0642448E-2,-2.199181E-2,-1.9408E-2,1.7019428E-2,1.9164493E-2,-4.207815E-2,4.2593107E-2,-2.2135923E-2,-3.0263958E-2,3.7961166E-2,-2.6486894E-2,2.5104672E-2,-3.055789E-2,9.5683215E-3,4.401027E-2,1.6718067E-2,-3.3592995E-2,1.2657008E-2,-1.0508344E-2,3.180623E-2,4.1728E-2,-2.2092689E-2,-1.2480263E-2,2.3933506E-2,3.136386E-2,1.146434E-3,2.3361651E-2,-2.9994944E-2],"split_indices":[0,1,3,4,2,0,4,6,0,3,3,7,2,4,3,2,5,7,5,4,3,1,0,0,0,1,0,0,7,5,0,4,5,7,6,2,5,0,5,3,6,4,4,4,0,0,0,1,5,0,3,0,0,2,0,6,0,6,1,1,5,2,0,0,0,6,0,0,0,0,0,4,6,0,5,10,3,0,0,0,4,2,0,0,5,0,0,7,2,0,0,0,3,2,13,2,3,0,0,0,0,0,0,0,0,0,0,4,3,3,0,3,8,3,5,6,5,2,3,5,6,3,2,4,7,0,7,2,5,0,0,0,0,0,7,0,0,0,2,0,0,0,0,0,5,0,0,0,7,0,7,0,2,6,0,3,0,2,0,3,2,0,3,2,7,2,0,2,7,0,0,1,0,0,0,0,0,0,0,0,0,0,4,0,0,12,0,0,0,6,0,0,2,5,0,4,3,0,4,6,2,0,2,7,4,7,0,0,3,0,0,0,0,10,0,0,0,0,2,0,1,0,20,2,0,0,6,0,0,0,0,0,0,0,0,0,4,0,0,0,0,0,0,0,0,0,0,0,0,0,0,0,0,0,0,0,0,0,0,0,0,0,0,0,0,0,0,0,0,0,0,0,0,0,0,0,0,0,0,0,0,0,0,0,0,0,0],"split_type":[0,0,0,0,0,0,0,0,0,0,0,0,0,0,0,0,0,0,0,0,0,0,0,0,0,0,0,0,0,0,0,0,0,0,0,0,0,0,0,0,0,0,0,0,0,0,0,0,0,0,0,0,0,0,0,0,0,0,0,0,0,0,0,0,0,0,0,0,0,0,0,0,0,0,0,0,0,0,0,0,0,0,0,0,0,0,0,0,0,0,0,0,0,0,0,0,0,0,0,0,0,0,0,0,0,0,0,0,0,0,0,0,0,0,0,0,0,0,0,0,0,0,0,0,0,0,0,0,0,0,0,0,0,0,0,0,0,0,0,0,0,0,0,0,0,0,0,0,0,0,0,0,0,0,0,0,0,0,0,0,0,0,0,0,0,0,0,0,0,0,0,0,0,0,0,0,0,0,0,0,0,0,0,0,0,0,0,0,0,0,0,0,0,0,0,0,0,0,0,0,0,0,0,0,0,0,0,0,0,0,0,0,0,0,0,0,0,0,0,0,0,0,0,0,0,0,0,0,0,0,0,0,0,0,0,0,0,0,0,0,0,0,0,0,0,0,0,0,0,0,0,0,0,0,0,0,0,0,0,0,0,0,0,0,0,0,0,0,0,0,0,0,0,0,0,0,0,0,0,0,0,0,0,0,0,0,0],"sum_hessian":[8.24E2,2.79E2,5.45E2,1.37E2,1.42E2,3.46E2,1.99E2,1.33E2,4E0,7.1E1,7.1E1,3.3E2,1.6E1,1.72E2,2.7E1,1.5E1,1.18E2,5.6E1,1.5E1,1.3E1,5.8E1,3.23E2,7E0,1.4E1,2E0,1.49E2,2.3E1,1E0,2.6E1,9E0,6E0,7.1E1,4.7E1,2.2E1,3.4E1,8E0,7E0,2E0,1.1E1,1.3E1,4.5E1,2.08E2,1.15E2,3E0,1.1E1,1E0,1E0,1.1E2,3.9E1,4E0,1.9E1,1E0,2.5E1,7E0,2E0,6.8E1,3E0,9E0,3.8E1,1.6E1,6E0,8E0,2.6E1,7E0,1E0,6E0,1E0,2E0,9E0,2E0,1.1E1,2.5E1,2E1,5.1E1,1.57E2,4.7E1,6.8E1,1E0,2E0,9.5E1,1.5E1,3.8E1,1E0,6E0,1.3E1,1E0,6E0,6.2E1,6E0,1E0,2E0,4E0,5E0,3.3E1,5E0,1.3E1,3E0,4E0,2E0,5E0,3E0,1E0,5E0,1E0,1E0,1E0,1E0,1.9E1,6E0,1.8E1,2E0,3.1E1,2E1,8.5E1,7.2E1,2.3E1,2.4E1,3.4E1,3.4E1,1.6E1,7.9E1,7E0,8E0,2.9E1,9E0,3E0,1E1,6E0,5.6E1,1E0,5E0,2E0,3E0,1E0,3.2E1,3E0,2E0,1E1,3E0,2E0,1E0,2E0,1E0,1E0,1.8E1,1E0,5E0,1.2E1,6E0,1E0,3E1,7E0,1.3E1,3E1,5.5E1,1.7E1,5.5E1,1E1,1.3E1,2.1E1,3E0,2.2E1,1.2E1,2.5E1,9E0,1E1,6E0,1.4E1,6.5E1,3E0,4E0,3E0,5E0,2E0,2.7E1,4E0,5E0,6E0,4E0,1E0,5E0,4.1E1,1.5E1,1E0,1E0,3.1E1,1E0,1E0,2E0,1.7E1,1E0,2E0,4E0,2.9E1,1E0,6E0,7E0,1.7E1,1.3E1,3.9E1,1.6E1,2E0,1.5E1,4.4E1,1.1E1,9E0,1E0,7E0,6E0,1.9E1,2E0,2E0,1E0,1.9E1,3E0,1E0,1.1E1,1.9E1,6E0,4E0,5E0,1E0,9E0,1.2E1,2E0,1E0,6.4E1,1E0,2E0,1E0,2E0,1E0,1E0,1E0,3E0,3E0,3E0,5E0,1E1,2.9E1,2E0,2E0,1.5E1,3E0,1E0,2.6E1,3E0,1E0,5E0,3E0,4E0,3E0,1.4E1,7E0,6E0,3.7E1,2E0,1.1E1,5E0,1.4E1,1E0,8E0,3.6E1,4E0,7E0,8E0,1E0,2E0,4E0,1E0,1E0,9E0,1E1,1.2E1,7E0,3E0,3E0,3E0,2E0,8E0,1E0,3E0,9E0,6E1,4E0,1E0,2E0],"tree_param":{"num_deleted":"0","num_feature":"24","num_nodes":"287","size_leaf_vector":"1"}},{"base_weights":[-1.1953065E-4,-1.604299E-1,8.209113E-2,-2.377964E-1,-8.464664E-2,1.5336786E-2,1.9749947E-1,-2.5792623E-1,3.492427E-2,-1.8617666E-1,1.8059032E-2,4.5539066E-4,3.0418414E-1,1.7464176E-1,3.6581138E-1,-7.0148736E-2,-2.810062E-1,-2.6088643E-1,9.161298E-2,-1.9150133E-1,6.747913E-2,-8.813329E-3,3.757816E-2,3.428436E-1,9.492298E-3,2.410546E-1,1.14080474E-1,-2.1850577E-2,4.0230334E-2,1.3062471E-1,-3.4694668E-2,-2.8733242E-1,2.3274422E-2,1.19812265E-1,-2.8425512E-1,2.4490917E-1,-2.0469886E-1,2.9953256E-2,-2.9830137E-1,3.3639604E-1,-1.5832076E-2,-5.382312E-2,7.235788E-2,1.15396544E-1,3.9008897E-2,2.3274422E-2,-2.1850577E-2,-2.8505573E-2,2.5736284E-1,-1.466506E-1,1.5720432E-1,2.6873398E-1,-2.812082E-2,2.1827668E-2,-2.9351947E-1,-2.0009229E-2,2.9314457E-2,-3.0876046E-1,1.7649436E-2,3.100883E-1,-2.0344106E-2,2.1473235E-2,-3.3153158E-2,-3.6443133E-2,2.1565596E-2,9.492298E-3,3.9008897E-2,1.1989533E-1,-1.8312162E-1,-2.148786E-1,-4.7686865E-4,1.734851E-1,9.598408E-4,-2.1850577E-2,2.9953256E-2,2.9872474E-1,3.5124745E-2,-3.7270546E-2,1.3264789E-1,1.002461E-1,2.6347208E-1,-2.1850577E-2,3.6955476E-2,-3.5471603E-1,-2.4736296E-1,-2.411606E-1,-3.8383484E-2,2.9305283E-2,-2.636371E-2,-2.0344106E-2,3.8975168E-2,-2.0039583E-2,2.3274422E-2,-2.1850577E-2,2.3274422E-2,2.3431003E-1,-2.2413173E-1,-2.496922E-1,2.9953256E-2,-3.043183E-1,-6.835719E-2,2.0141777E-1,-3.2894425E-2,2.7061874E-2,3.0711198E-1,-1.2654884E-1,1.284411E-1,3.1034386E-1,-2.45688E-2,3.5163295E-2,-1.2664182E-1,3.5114076E-2,-2.757229E-2,1.7511302E-1,-1.1107321E-1,3.387958E-1,-6.9180936E-2,-3.7153652E-1,-1.3575268E-1,-1.5841705E-1,-3.422897E-1,-2.920782E-1,2.9748473E-2,-2.1850577E-2,2.6964274E-1,2.3274422E-2,-3.3906844E-2,-3.682654E-2,6.185472E-3,2.3274422E-2,-3.291508E-1,-3.5279263E-2,9.905999E-2,3.2279E-1,-5.1332362E-2,-1.2846771E-1,8.140542E-2,2.3627645E-1,-1.39254E-1,3.672019E-1,-1.00160435E-1,-2.1739192E-2,-3.0224678E-1,2.7519807E-1,-2.5451478E-2,9.648681E-2,3.3725002E-1,-3.5245273E-2,8.264088E-2,6.213107E-2,3.160271E-1,-3.7900813E-2,1.7074583E-1,3.7005594E-1,7.042984E-3,-3.2535553E-2,2.9544553E-2,-2.1530747E-1,-3.9053828E-2,2.806126E-2,-3.0999715E-2,-2.7854887E-1,6.7419596E-2,2.1827668E-2,-3.6662853E-1,-3.4711438E-1,1.9503867E-2,3.089013E-1,-2.1850577E-2,-1.6786493E-1,2.9420767E-2,-3.5563877E-1,2.3274422E-2,4.0995535E-3,3.354362E-2,-1.0523552E-1,4.3856602E-2,-3.3701476E-2,1.8748E-1,-4.1922513E-2,-3.6437085E-1,-3.449734E-2,1.0847392E-1,3.0720523E-1,-2.3650562E-2,-3.5604734E-2,1.2840323E-1,4.0523518E-2,-8.754075E-3,-2.8246358E-2,2.2337452E-2,-1.8172492E-1,1.4005814E-1,2.3274422E-2,-3.6622472E-2,4.05776E-2,-5.358717E-2,-1.2073426E-1,3.3822183E-2,2.5338778E-1,-3.0177772E-2,3.8342735E-1,1.5813684E-1,-2.7921751E-2,3.3337444E-2,-1.4798328E-1,1.5735364E-1,-2.1068042E-2,3.5940287E-1,-9.557271E-2,3.4965154E-2,1.5947124E-1,4.102246E-2,2.2245253E-2,-2.1188805E-2,2.6490757E-2,-3.394946E-2,-3.7792142E-2,-2.0142049E-3,3.900717E-2,-1.006484E-2,-3.9119165E-2,-1.5574935E-2,-9.666226E-3,-3.798491E-2,3.0492911E-2,-2.7242264E-2,1.4085478E-2,4.030351E-2,-2.862746E-2,6.4997276E-4,-3.8080916E-2,-9.682893E-3,-3.1640965E-2,1.6384173E-2,2.5264198E-2,-3.0874202E-2,3.4961652E-2,-2.3053305E-2,5.7949326E-3,-2.9522395E-2,-4.0983178E-2,2.4969304E-2,2.6970515E-2,-6.50536E-4,3.8807053E-2,-2.1029128E-2,-2.8246358E-2,3.492427E-2,-2.5162552E-2,2.384944E-2,9.8751215E-3,-3.9617237E-2,-3.3612188E-2,3.361317E-2,3.10963E-2,-3.1360302E-2,8.818007E-3,-2.3400944E-2,3.567874E-2,-3.407518E-4,-1.3488572E-3,4.013678E-2,-6.000096E-3,3.8484626E-2,1.1708051E-2,-3.304377E-2,2.8298957E-2,-2.0077048E-2,7.644991E-4,4.0579427E-2,-2.7549226E-2,2.2209296E-2,-2.45688E-2,3.2218304E-2],"categories":[],"categories_nodes":[],"categories_segments":[],"categories_sizes":[],"default_left":[0,0,0,0,0,0,0,0,0,0,0,0,0,0,0,0,0,0,0,0,0,0,0,0,0,0,0,0,0,0,0,0,0,0,0,0,0,0,0,0,0,0,0,0,0,0,0,0,0,0,0,0,0,0,0,0,0,0,0,0,0,0,0,0,0,0,0,0,0,0,0,0,0,0,0,0,0,0,0,0,0,0,0,0,0,0,0,0,0,0,0,0,0,0,0,0,0,0,0,0,0,0,0,0,0,0,0,0,0,0,0,0,0,0,0,0,0,0,0,0,0,0,0,0,0,0,0,0,0,0,0,0,0,0,0,0,0,0,0,0,0,0,0,0,0,0,0,0,0,0,0,0,0,0,0,0,0,0,0,0,0,0,0,0,0,0,0,0,0,0,0,0,0,0,0,0,0,0,0,0,0,0,0,0,0,0,0,0,0,0,0,0,0,0,0,0,0,0,0,0,0,0,0,0,0,0,0,0,0,0,0,0,0,0,0,0,0,0,0,0,0,0,0,0,0,0,0,0,0,0,0,0,0,0,0,0,0,0,0,0,0,0,0,0,0,0,0,0,0,0,0,0,0,0,0,0,0,0,0,0,0,0,0,0,0,0,0,0,0,0,0,0,0,0,0],"id":2,"left_children":[1,3,5,7,9,11,13,15,-1,17,19,21,23,25,27,29,31,33,35,37,39,41,-1,43,45,47,49,-1,-1,51,-1,53,-1,55,57,59,61,-1,63,65,67,69,71,73,-1,-1,-1,-1,75,77,79,81,-1,-1,83,-1,-1,85,87,89,-1,-1,-1,-1,91,93,-1,95,97,99,101,103,105,-1,-1,107,109,-1,111,113,115,-1,-1,117,119,121,-1,-1,-1,-1,-1,-1,-1,-1,-1,123,125,127,-1,129,131,133,135,137,139,141,143,145,-1,-1,147,-1,-1,149,151,153,155,157,159,161,163,165,-1,-1,167,-1,-1,-1,169,-1,171,-1,173,175,177,179,181,183,185,187,189,191,193,195,197,199,201,-1,203,205,207,-1,209,211,213,-1,-1,215,-1,-1,-1,217,219,-1,221,223,225,227,-1,229,-1,231,-1,233,-1,235,-1,-1,237,239,241,-1,243,245,-1,-1,247,-1,249,-1,-1,251,253,-1,-1,-1,255,257,-1,259,-1,261,263,-1,-1,265,267,-1,269,271,-1,273,-1,-1,-1,-1,-1,-1,-1,-1,-1,-1,-1,-1,-1,-1,-1,-1,-1,-1,-1,-1,-1,-1,-1,-1,-1,-1,-1,-1,-1,-1,-1,-1,-1,-1,-1,-1,-1,-1,-1,-1,-1,-1,-1,-1,-1,-1,-1,-1,-1,-1,-1,-1,-1,-1,-1,-1,-1,-1,-1,-1,-1,-1,-1],"loss_changes":[1.0886028E1,1.6215353E0,4.2033596E0,1.7208252E0,1.4945247E0,1.4914243E0,7.0555925E-1,5.6102943E-1,0E0,1.5181599E0,7.5859E-1,1.1547925E0,1.9042027E-1,6.884241E-1,5.783317E-1,9.344987E-1,4.5363617E-1,5.4115343E-1,7.769083E-1,8.2354516E-1,1.3271497E0,1.1876281E0,0E0,1.1617231E-1,2.0355898E-1,7.940774E-1,1.091208E0,0E0,0E0,6.443496E-1,0E0,4.3319988E-1,0E0,2.8045508E-1,4.0495586E-1,3.8453853E-1,3.9037612E-1,0E0,2.6169264E-1,2.4203098E-1,1.0664212E0,1.7955642E0,8.3738655E-1,3.1138337E-1,0E0,0E0,0E0,0E0,7.432666E-1,9.333535E-1,4.6991944E-1,4.73741E-1,0E0,0E0,2.4273682E-1,0E0,0E0,1.6118526E-1,4.6459594E-1,4.883864E-1,0E0,0E0,0E0,0E0,1.8726149E-1,2.0355898E-1,0E0,1.075922E0,7.495329E-1,6.6064906E-1,1.0407246E0,9.3086064E-1,1.1378468E0,0E0,0E0,5.127144E-1,7.6133764E-1,0E0,7.214004E-1,8.895957E-1,7.2502494E-1,0E0,0E0,1.2634993E-1,5.368099E-1,8.822583E-1,0E0,0E0,0E0,0E0,0E0,0E0,0E0,0E0,0E0,3.7890267E-1,4.4649887E-1,5.787424E-1,0E0,5.0337887E-1,1.0349545E0,6.9146025E-1,1.5070477E0,8.679994E-1,6.486032E-1,6.3794875E-1,7.974724E-1,3.58737E-1,0E0,0E0,5.017102E-1,0E0,0E0,6.3311553E-1,1.1973513E0,2.3591828E-1,6.5657306E-1,4.653406E-2,4.4973582E-1,1.0497262E0,5.3026295E-1,4.69774E-1,0E0,0E0,4.3161297E-1,0E0,0E0,0E0,4.0029976E-1,0E0,5.441601E-1,0E0,3.1287426E-1,7.894789E-1,6.089794E-1,1.5159461E0,7.6453096E-1,4.4152814E-1,8.58086E-1,3.1812167E-1,2.9902095E-1,6.208132E-1,5.3019583E-1,7.945224E-1,6.645675E-1,6.388596E-1,4.3562412E-1,0E0,6.374643E-1,5.034688E-1,4.869535E-1,0E0,4.145843E-1,1.1221814E-1,1.8861452E-1,0E0,0E0,5.0739026E-1,0E0,0E0,0E0,6.343514E-1,7.9844487E-1,0E0,1.04827404E-1,1.518476E-1,4.9968556E-1,2.2796988E-1,0E0,1.0509302E-1,0E0,1.5855694E-1,0E0,6.1502826E-1,0E0,3.6932278E-1,0E0,0E0,4.1947407E-1,1.4337782E0,6.606498E-1,0E0,1.1140494E0,5.0008285E-1,0E0,0E0,7.3379755E-1,0E0,2.4016005E-1,0E0,0E0,7.6089096E-1,1.2333766E0,0E0,0E0,0E0,6.662519E-1,3.7560707E-1,0E0,1.8708348E-1,0E0,3.400936E-1,7.1544564E-1,0E0,0E0,4.2558426E-1,8.217013E-1,0E0,2.7431273E-1,2.8980193E-1,0E0,4.0877748E-1,0E0,0E0,0E0,0E0,0E0,0E0,0E0,0E0,0E0,0E0,0E0,0E0,0E0,0E0,0E0,0E0,0E0,0E0,0E0,0E0,0E0,0E0,0E0,0E0,0E0,0E0,0E0,0E0,0E0,0E0,0E0,0E0,0E0,0E0,0E0,0E0,0E0,0E0,0E0,0E0,0E0,0E0,0E0,0E0,0E0,0E0,0E0,0E0,0E0,0E0,0E0,0E0,0E0,0E0,0E0,0E0,0E0,0E0,0E0,0E0,0E0,0E0,0E0],"parents":[2147483647,0,0,1,1,2,2,3,3,4,4,5,5,6,6,7,7,9,9,10,10,11,11,12,12,13,13,14,14,15,15,16,16,17,17,18,18,19,19,20,20,21,21,23,23,24,24,25,25,26,26,29,29,31,31,33,33,34,34,35,35,36,36,38,38,39,39,40,40,41,41,42,42,43,43,48,48,49,49,50,50,51,51,54,54,57,57,58,58,59,59,64,64,65,65,67,67,68,68,69,69,70,70,71,71,72,72,75,75,76,76,78,78,79,79,80,80,83,83,84,84,85,85,95,95,96,96,97,97,99,99,100,100,101,101,102,102,103,103,104,104,105,105,106,106,107,107,110,110,113,113,114,114,115,115,116,116,117,117,118,118,119,119,120,120,121,121,124,124,128,128,130,130,132,132,133,133,134,134,135,135,136,136,137,137,138,138,139,139,140,140,141,141,142,142,143,143,144,144,145,145,146,146,148,148,149,149,150,150,152,152,153,153,154,154,157,157,161,161,162,162,164,164,165,165,166,166,167,167,169,169,171,171,173,173,175,175,178,178,179,179,180,180,182,182,183,183,186,186,188,188,191,191,192,192,196,196,197,197,199,199,201,201,202,202,205,205,206,206,208,208,209,209,211,211],"right_children":[2,4,6,8,10,12,14,16,-1,18,20,22,24,26,28,30,32,34,36,38,40,42,-1,44,46,48,50,-1,-1,52,-1,54,-1,56,58,60,62,-1,64,66,68,70,72,74,-1,-1,-1,-1,76,78,80,82,-1,-1,84,-1,-1,86,88,90,-1,-1,-1,-1,92,94,-1,96,98,100,102,104,106,-1,-1,108,110,-1,112,114,116,-1,-1,118,120,122,-1,-1,-1,-1,-1,-1,-1,-1,-1,124,126,128,-1,130,132,134,136,138,140,142,144,146,-1,-1,148,-1,-1,150,152,154,156,158,160,162,164,166,-1,-1,168,-1,-1,-1,170,-1,172,-1,174,176,178,180,182,184,186,188,190,192,194,196,198,200,202,-1,204,206,208,-1,210,212,214,-1,-1,216,-1,-1,-1,218,220,-1,222,224,226,228,-1,230,-1,232,-1,234,-1,236,-1,-1,238,240,242,-1,244,246,-1,-1,248,-1,250,-1,-1,252,254,-1,-1,-1,256,258,-1,260,-1,262,264,-1,-1,266,268,-1,270,272,-1,274,-1,-1,-1,-1,-1,-1,-1,-1,-1,-1,-1,-1,-1,-1,-1,-1,-1,-1,-1,-1,-1,-1,-1,-1,-1,-1,-1,-1,-1,-1,-1,-1,-1,-1,-1,-1,-1,-1,-1,-1,-1,-1,-1,-1,-1,-1,-1,-1,-1,-1,-1,-1,-1,-1,-1,-1,-1,-1,-1,-1,-1,-1,-1],"split_conditions":[-4.9708688E-1,-7.706894E-2,3.934791E-1,1.7194196E0,-1.6715522E-1,1.7019502E0,2.1146445E0,-1.1368486E0,3.492427E-2,-1.3797319E-1,-9.964731E-1,1.4190024E0,1.2440324E0,4.105278E-2,8.840504E-1,-2.596921E-1,4.5291877E0,-1.60515E0,-7.68645E-1,-1.7585583E0,-6.8986595E-1,4.0593684E-1,3.757816E-2,1.8176891E0,1.8176891E0,-1.8130362E0,-4.0159377E-1,-2.1850577E-2,4.0230334E-2,9.620904E-1,-3.4694668E-2,-2.0178928E0,2.3274422E-2,2.4485199E-1,2.0167854E0,2.4194975E0,-1.1881857E0,2.9953256E-2,-6.023197E-2,-9.7603256E-1,5.536205E-1,-8.4954137E-1,-6.51929E-1,-2.962267E-1,3.9008897E-2,2.3274422E-2,-2.1850577E-2,-2.8505573E-2,1.7425503E0,-7.2165716E-1,1.6199075E0,-1.7171481E0,-2.812082E-2,2.1827668E-2,-7.307469E-1,-2.0009229E-2,2.9314457E-2,-4.2940712E-1,-9.7603256E-1,-1.3238664E0,-2.0344106E-2,2.1473235E-2,-3.3153158E-2,-3.6443133E-2,-2.11743E0,-1.1915196E0,3.9008897E-2,6.523127E-1,2.49766E0,7.760399E-1,-1.3058954E0,1.0497813E0,-1.7885414E-1,-2.1850577E-2,2.9953256E-2,1.7402625E0,9.9515736E-1,-3.7270546E-2,1.5218073E0,1.1293361E0,9.7663546E-1,-2.1850577E-2,3.6955476E-2,3.0708923E0,-2.4017556E-1,-5.4576963E-1,-3.8383484E-2,2.9305283E-2,-2.636371E-2,-2.0344106E-2,3.8975168E-2,-2.0039583E-2,2.3274422E-2,-2.1850577E-2,2.3274422E-2,-1.0471538E0,-2.6061603E-1,5.7744336E-1,2.9953256E-2,-1.5279254E0,9.9515736E-1,4.19067E-1,2.1495946E-2,-2.9161403E-1,6.323974E-1,1.10455446E-1,3.1866345E-1,4.5480052E-1,-2.45688E-2,3.5163295E-2,1.5218073E0,3.5114076E-2,-2.757229E-2,6.387648E-1,2.0527166E-1,1.8775096E0,2.2081347E0,-6.291683E-1,-1.538736E0,-5.909186E-2,-1.9561707E0,-5.1416856E-1,2.9748473E-2,-2.1850577E-2,1.7111714E0,2.3274422E-2,-3.3906844E-2,-3.682654E-2,1.0497813E0,2.3274422E-2,8.1213707E-1,-3.5279263E-2,-4.0369934E-1,-2.656093E-1,9.9515736E-1,-3.5770826E-2,-1.1156584E0,1.2903008E0,3.130847E-1,-1.3797319E-1,-9.537188E-1,-5.2634215E-1,-9.7603256E-1,1.2775296E-1,9.9515736E-1,1.4704727E0,1.6518193E0,-3.5245273E-2,1.9469551E0,3.1866345E-1,-2.8780648E-1,-3.7900813E-2,1.3852052E-1,-7.4455494E-1,8.9177865E-1,-3.2535553E-2,2.9544553E-2,-1.5783427E0,-3.9053828E-2,2.806126E-2,-3.0999715E-2,-8.4430325E-1,-5.2634215E-1,2.1827668E-2,-3.18945E-1,-7.429555E-1,-3.0596057E-1,-1.9910729E-1,-2.1850577E-2,-9.6004206E-1,2.9420767E-2,3.269467E-1,2.3274422E-2,1.0497813E0,3.354362E-2,-6.914515E-1,4.3856602E-2,-3.3701476E-2,-7.2165716E-1,9.148439E-2,1.567902E0,-3.449734E-2,9.9515736E-1,8.1213707E-1,-2.3650562E-2,-3.5604734E-2,-9.7603256E-1,4.0523518E-2,3.130847E-1,-2.8246358E-2,2.2337452E-2,-6.529739E-1,-8.8431615E-1,2.3274422E-2,-3.6622472E-2,4.05776E-2,-1.1183552E-1,8.160709E-2,3.3822183E-2,4.1391957E-1,-3.0177772E-2,-1.3724259E0,8.9177865E-1,-2.7921751E-2,3.3337444E-2,-4.8277624E-2,5.7744336E-1,-2.1068042E-2,6.4187E-2,-7.706894E-2,3.4965154E-2,5.7326776E-1,4.102246E-2,2.2245253E-2,-2.1188805E-2,2.6490757E-2,-3.394946E-2,-3.7792142E-2,-2.0142049E-3,3.900717E-2,-1.006484E-2,-3.9119165E-2,-1.5574935E-2,-9.666226E-3,-3.798491E-2,3.0492911E-2,-2.7242264E-2,1.4085478E-2,4.030351E-2,-2.862746E-2,6.4997276E-4,-3.8080916E-2,-9.682893E-3,-3.1640965E-2,1.6384173E-2,2.5264198E-2,-3.0874202E-2,3.4961652E-2,-2.3053305E-2,5.7949326E-3,-2.9522395E-2,-4.0983178E-2,2.4969304E-2,2.6970515E-2,-6.50536E-4,3.8807053E-2,-2.1029128E-2,-2.8246358E-2,3.492427E-2,-2.5162552E-2,2.384944E-2,9.8751215E-3,-3.9617237E-2,-3.3612188E-2,3.361317E-2,3.10963E-2,-3.1360302E-2,8.818007E-3,-2.3400944E-2,3.567874E-2,-3.407518E-4,-1.3488572E-3,4.013678E-2,-6.000096E-3,3.8484626E-2,1.1708051E-2,-3.304377E-2,2.8298957E-2,-2.0077048E-2,7.644991E-4,4.0579427E-2,-2.7549226E-2,2.2209296E-2,-2.45688E-2,3.2218304E-2],"split_indices":[0,1,3,4,2,0,4,6,0,3,3,7,2,2,3,2,7,5,2,4,3,1,0,0,0,6,7,0,0,5,0,2,0,1,1,1,5,0,7,3,6,4,4,4,0,0,0,0,3,1,3,2,0,0,3,0,0,5,3,2,0,0,0,0,0,0,0,4,6,0,6,10,3,0,0,5,8,0,4,3,5,0,0,13,3,5,0,0,0,0,0,0,0,0,0,4,3,3,0,3,8,5,5,6,5,2,2,3,0,0,4,0,0,3,7,4,5,7,0,4,4,2,0,0,5,0,0,0,10,0,7,0,3,0,8,3,2,2,0,3,2,3,3,3,8,0,11,0,3,2,7,0,4,5,0,0,0,2,0,0,0,0,3,0,1,7,2,5,0,0,0,5,0,10,0,4,0,0,1,7,6,0,8,7,0,0,3,0,0,0,0,2,2,0,0,0,5,0,0,3,0,5,0,0,0,6,3,0,2,1,0,4,0,0,0,0,0,0,0,0,0,0,0,0,0,0,0,0,0,0,0,0,0,0,0,0,0,0,0,0,0,0,0,0,0,0,0,0,0,0,0,0,0,0,0,0,0,0,0,0,0,0,0,0,0,0,0,0,0,0,0,0,0,0,0],"split_type":[0,0,0,0,0,0,0,0,0,0,0,0,0,0,0,0,0,0,0,0,0,0,0,0,0,0,0,0,0,0,0,0,0,0,0,0,0,0,0,0,0,0,0,0,0,0,0,0,0,0,0,0,0,0,0,0,0,0,0,0,0,0,0,0,0,0,0,0,0,0,0,0,0,0,0,0,0,0,0,0,0,0,0,0,0,0,0,0,0,0,0,0,0,0,0,0,0,0,0,0,0,0,0,0,0,0,0,0,0,0,0,0,0,0,0,0,0,0,0,0,0,0,0,0,0,0,0,0,0,0,0,0,0,0,0,0,0,0,0,0,0,0,0,0,0,0,0,0,0,0,0,0,0,0,0,0,0,0,0,0,0,0,0,0,0,0,0,0,0,0,0,0,0,0,0,0,0,0,0,0,0,0,0,0,0,0,0,0,0,0,0,0,0,0,0,0,0,0,0,0,0,0,0,0,0,0,0,0,0,0,0,0,0,0,0,0,0,0,0,0,0,0,0,0,0,0,0,0,0,0,0,0,0,0,0,0,0,0,0,0,0,0,0,0,0,0,0,0,0,0,0,0,0,0,0,0,0,0,0,0,0,0,0,0,0,0,0,0,0,0,0,0,0,0,0],"sum_hessian":[8.24E2,2.79E2,5.45E2,1.37E2,1.42E2,3.46E2,1.99E2,1.33E2,4E0,7.1E1,7.1E1,3.3E2,1.6E1,1.77E2,2.2E1,1.5E1,1.18E2,5.6E1,1.5E1,1.3E1,5.8E1,3.23E2,7E0,1.4E1,2E0,8.3E1,9.4E1,1E0,2.1E1,9E0,6E0,1.17E2,1E0,3E0,5.3E1,1E1,5E0,2E0,1.1E1,1.3E1,4.5E1,2.08E2,1.15E2,3E0,1.1E1,1E0,1E0,2E0,8.1E1,1.3E1,8.1E1,7E0,2E0,1E0,1.16E2,1E0,2E0,4.9E1,4E0,9E0,1E0,1E0,4E0,9E0,2E0,2E0,1.1E1,2.5E1,2E1,5.1E1,1.57E2,4.7E1,6.8E1,1E0,2E0,6.8E1,1.3E1,7E0,6E0,5.4E1,2.7E1,1E0,6E0,4.7E1,6.9E1,2.8E1,2.1E1,2E0,2E0,1E0,8E0,1E0,1E0,1E0,1E0,1.9E1,6E0,1.8E1,2E0,3.1E1,2E1,2.1E1,1.36E2,2.3E1,2.4E1,3.4E1,3.4E1,6.7E1,1E0,4E0,9E0,4E0,2E0,4E1,1.4E1,2.2E1,5E0,4.3E1,4E0,3.7E1,3.2E1,2.6E1,2E0,1E0,1.8E1,1E0,5E0,1.2E1,6E0,1E0,3E1,7E0,1.3E1,1.4E1,7E0,7.4E1,6.2E1,1E1,1.3E1,2.1E1,3E0,2.2E1,1.2E1,1.7E1,1.7E1,8E0,5.9E1,4E0,5E0,2.3E1,1.7E1,7E0,7E0,2E1,2E0,3E0,2E0,6E0,3.7E1,1E0,3E0,2.4E1,1.3E1,1E0,3.1E1,2.2E1,4E0,1.7E1,1E0,4E0,2E0,2.9E1,1E0,1E1,3E0,3E0,1.1E1,3E0,4E0,5.5E1,1.9E1,3E0,5.9E1,9E0,1E0,7E0,6E0,1.9E1,2E0,2E0,1E0,1.1E1,1.1E1,1E0,1.1E1,1.2E1,5E0,1.4E1,3E0,6E0,2E0,4.6E1,1.3E1,2E0,3E0,7E0,1.6E1,1E0,1.6E1,3E0,4E0,4E0,1.6E1,1E0,1E0,1E0,5E0,1.7E1,7E0,4E0,9E0,2.7E1,4E0,3E0,1.9E1,2E0,2E0,7E0,1E1,2E0,2E0,2.6E1,3E0,3E0,7E0,1E0,2E0,3E0,1E0,4E1,1.5E1,1.8E1,1E0,2.4E1,3.5E1,8E0,1E0,2E0,4E0,1E0,1E0,5E0,6E0,3E0,8E0,2E0,3E0,5E0,9E0,4E0,2E0,2E0,4.4E1,7E0,6E0,3E0,4E0,1.2E1,4E0,2E0,1.4E1,2E0,1E0,1E0,3E0],"tree_param":{"num_deleted":"0","num_feature":"24","num_nodes":"275","size_leaf_vector":"1"}},{"base_weights":[-6.9845555E-5,-1.4468421E-1,7.4091494E-2,-2.1445781E-1,-7.633847E-2,1.3951252E-2,1.7806436E-1,-2.3284847E-1,3.2130327E-2,-1.5095791E-1,3.8893625E-2,4.185248E-4,2.7662075E-1,1.5460597E-1,3.166442E-1,-6.611577E-2,-2.5330958E-1,2.0356722E-2,-2.092545E-1,-1.9184725E-1,9.206928E-2,-8.039117E-3,3.429007E-2,3.117E-1,9.017686E-3,1.7952007E-1,-7.549046E-3,-2.0758048E-2,3.437481E-1,1.16260655E-1,-3.1720843E-2,-3.0174476E-1,-1.7537954E-1,-8.3430275E-2,3.2832492E-2,-2.4614882E-1,-4.2742655E-2,2.7956376E-2,-3.276679E-2,1.92003E-1,-2.0557335E-2,-4.939683E-2,6.4580254E-2,1.0588257E-1,3.543308E-2,2.21107E-2,-2.0758048E-2,1.396568E-1,2.8565267E-1,3.320461E-2,-9.207038E-2,-1.9124527E-2,3.7168037E-2,2.437487E-1,-2.6246099E-2,-3.1066364E-1,-7.245825E-2,6.5247014E-2,-2.3258175E-1,1.10599354E-1,-2.4971391E-1,7.297578E-2,-2.809113E-1,-1.7678696E-1,3.0305376E-2,-1.4261468E-2,3.304634E-1,3.2991033E-2,-2.8315986E-2,-1.9374087E-1,-9.6550566E-4,1.6180702E-1,-4.401052E-3,-2.0758048E-2,2.7956376E-2,6.1484624E-2,2.0044634E-1,3.029814E-1,-1.950837E-2,-3.2746837E-2,3.2205075E-2,-2.0758048E-2,3.3787865E-2,-2.3288742E-1,-3.279554E-1,2.3777664E-2,-2.5512878E-2,3.413173E-2,-1.7568606E-1,-2.821272E-1,8.693942E-2,-4.5181513E-2,3.1662084E-2,2.0692045E-2,-3.2344222E-2,-2.7006561E-2,3.1201286E-2,-1.771865E-1,-3.3207697E-1,-3.134655E-2,1.0659716E-1,-2.4951488E-1,3.179456E-2,3.799342E-2,-1.8106382E-2,-6.412829E-2,3.3717465E-2,-2.7392444E-1,-6.233064E-2,2.3602443E-2,-2.518406E-1,2.3121539E-1,-4.8186556E-2,-1.7710276E-1,6.822169E-2,1.1962175E-1,-2.5868803E-1,2.6753134E-1,9.045927E-2,3.540334E-1,1.1952727E-1,2.9815609E-2,-6.743212E-2,2.516622E-2,-2.819682E-1,-3.4097472E-1,-1.9182938E-1,-2.883627E-2,3.31115E-2,-3.0407694E-1,2.21107E-2,3.2764178E-2,-2.6297683E-2,-2.7496144E-2,2.7625224E-2,-2.9418692E-1,3.0586168E-2,-3.5335835E-2,-1.8451138E-1,-1.868645E-2,2.6670588E-2,1.9327134E-2,-3.555245E-2,-1.3319598E-1,2.7956376E-2,2.21107E-2,-2.9702568E-1,-3.2192327E-2,9.046018E-2,7.368792E-2,-9.8595686E-2,-3.6595177E-2,2.6749933E-2,-4.7274955E-2,2.977723E-1,-2.3397568E-1,2.0756336E-1,1.4360024E-1,-3.1495732E-1,2.0066558E-1,-9.598051E-2,-1.4619884E-1,1.6667911E-1,-9.1041066E-2,-3.4106802E-2,3.191322E-1,3.4136582E-2,1.7864957E-1,-2.1858494E-1,-3.1803448E-3,3.7966225E-2,-1.5671825E-1,3.2981068E-2,1.16421856E-1,-3.1134127E-2,-3.371665E-2,2.4540398E-2,-3.592849E-2,-2.2170992E-1,2.6658196E-2,-3.126616E-2,-1.8810939E-2,2.3777664E-2,2.1324063E-2,-3.269069E-1,6.593108E-3,-3.4096792E-2,-3.0045612E-2,1.9760614E-2,1.5206827E-2,-3.336009E-2,-3.21667E-1,2.21107E-2,2.3505257E-1,-4.736568E-2,1.6439082E-1,2.0445061E-3,-2.0978118E-1,2.3381631E-1,-2.6124844E-2,3.0583167E-2,1.5477516E-1,-2.8801886E-2,3.182132E-1,7.733067E-3,-3.2477636E-2,2.0081455E-2,3.22695E-2,-1.840474E-2,-1.07121125E-1,3.5842158E-2,2.21107E-2,-3.69041E-2,-8.8862404E-2,3.209199E-1,-1.7294863E-1,3.128552E-2,-3.6605187E-2,2.689558E-2,3.7547536E-2,7.544068E-2,2.0202616E-2,-2.5607219E-2,-2.0547798E-2,3.4346846E-1,3.0097798E-2,-1.8616384E-1,-2.8710369E-2,2.4635014E-1,1.9796995E-2,-3.414899E-2,-2.303353E-2,2.2556478E-2,2.0783737E-2,-2.9981649E-2,3.0086024E-2,-9.712199E-2,6.7723403E-3,-3.1407993E-2,-3.496206E-2,9.1995E-4,2.0940298E-2,-1.9951332E-2,2.0748993E-2,-2.7701953E-2,-3.4413863E-2,-8.956675E-3,-2.0268528E-2,3.4178976E-2,-2.9901072E-2,1.634235E-2,5.4395436E-3,2.9916529E-2,2.9922042E-2,-5.148805E-3,-2.7205272E-2,1.0540416E-2,-2.212671E-2,3.0145137E-2,2.938444E-2,-2.0075092E-2,1.06118E-2,3.394199E-2,-1.9269425E-2,2.0429386E-2,-2.8664028E-2,2.1571819E-2,-2.3334784E-2,2.7789107E-2,-1.9207183E-2,3.5802852E-2,-2.3821091E-2,1.4765325E-2,-2.0576507E-2,2.0467287E-2,3.9387997E-2,7.6175793E-3,1.9664336E-2,-3.310265E-2,-9.709748E-3,3.215128E-2,1.954566E-2,-2.5980039E-2],"categories":[],"categories_nodes":[],"categories_segments":[],"categories_sizes":[],"default_left":[0,0,0,0,0,0,0,0,0,0,0,0,0,0,0,0,0,0,0,0,0,0,0,0,0,0,0,0,0,0,0,0,0,0,0,0,0,0,0,0,0,0,0,0,0,0,0,0,0,0,0,0,0,0,0,0,0,0,0,0,0,0,0,0,0,0,0,0,0,0,0,0,0,0,0,0,0,0,0,0,0,0,0,0,0,0,0,0,0,0,0,0,0,0,0,0,0,0,0,0,0,0,0,0,0,0,0,0,0,0,0,0,0,0,0,0,0,0,0,0,0,0,0,0,0,0,0,0,0,0,0,0,0,0,0,0,0,0,0,0,0,0,0,0,0,0,0,0,0,0,0,0,0,0,0,0,0,0,0,0,0,0,0,0,0,0,0,0,0,0,0,0,0,0,0,0,0,0,0,0,0,0,0,0,0,0,0,0,0,0,0,0,0,0,0,0,0,0,0,0,0,0,0,0,0,0,0,0,0,0,0,0,0,0,0,0,0,0,0,0,0,0,0,0,0,0,0,0,0,0,0,0,0,0,0,0,0,0,0,0,0,0,0,0,0,0,0,0,0,0,0,0,0,0,0,0,0,0,0,0,0,0,0,0,0,0,0,0,0,0,0,0,0,0,0,0,0,0,0,0,0,0,0],"id":3,"left_children":[1,3,5,7,9,11,13,15,-1,17,19,21,23,25,27,29,31,33,35,37,39,41,-1,43,45,47,49,-1,51,53,-1,55,57,59,-1,61,63,-1,-1,65,67,69,71,73,-1,-1,-1,75,77,-1,79,-1,-1,81,-1,83,85,87,89,91,93,95,97,99,-1,101,103,105,-1,107,109,111,113,-1,-1,115,117,119,-1,-1,121,-1,-1,123,125,-1,-1,-1,127,129,131,133,-1,-1,-1,-1,-1,135,137,-1,139,141,-1,-1,-1,143,-1,145,147,149,151,153,155,157,159,161,163,165,167,169,171,-1,173,-1,175,177,179,-1,181,183,-1,-1,-1,-1,-1,185,-1,-1,187,-1,-1,-1,-1,189,-1,-1,191,-1,193,195,197,-1,199,201,203,205,207,209,211,213,215,217,219,221,-1,223,225,227,229,231,-1,233,-1,235,-1,-1,-1,-1,237,-1,-1,-1,-1,-1,239,241,-1,-1,-1,243,-1,245,-1,247,249,251,253,255,257,-1,-1,259,-1,261,263,-1,-1,-1,-1,265,-1,-1,-1,267,269,271,-1,-1,-1,-1,273,-1,-1,-1,275,-1,277,-1,279,-1,-1,-1,-1,-1,-1,-1,281,-1,-1,-1,-1,-1,-1,-1,-1,-1,-1,-1,-1,-1,-1,-1,-1,-1,-1,-1,-1,-1,-1,-1,-1,-1,-1,-1,-1,-1,-1,-1,-1,-1,-1,-1,-1,-1,-1,-1,-1,-1,-1,-1,-1,-1,-1],"loss_changes":[8.858676E0,1.318872E0,3.411628E0,1.4345288E0,1.2354646E0,1.2333424E0,6.0121727E-1,4.4039822E-1,0E0,8.7313366E-1,7.1704173E-1,9.615285E-1,1.5677345E-1,7.002659E-1,4.6919417E-1,7.6957285E-1,3.9625263E-1,7.625434E-1,3.8879633E-1,7.9590476E-1,5.329413E-1,9.762823E-1,0E0,9.409499E-2,1.8371196E-1,5.947256E-1,7.194444E-1,0E0,4.7455835E-1,5.467993E-1,0E0,1.24727726E-1,6.7586505E-1,6.083693E-1,0E0,6.084585E-1,6.5615255E-1,0E0,0E0,7.186994E-1,3.3276623E-1,1.446903E0,7.9211795E-1,2.758025E-1,0E0,0E0,0E0,5.1515317E-1,3.923285E-1,0E0,5.9563005E-1,0E0,0E0,4.1000572E-1,0E0,1.6420841E-2,2.873467E-1,7.251093E-1,6.4192986E-1,3.0315322E-1,4.0359557E-1,5.762616E-1,1.959033E-1,4.207397E-1,0E0,9.390135E-1,4.4837737E-1,6.1246455E-1,0E0,5.308471E-1,9.674479E-1,7.253319E-1,8.900273E-1,0E0,0E0,9.6164066E-1,4.332652E-1,3.2294583E-1,0E0,0E0,3.910859E-1,0E0,0E0,4.5147395E-1,3.0292988E-2,0E0,0E0,0E0,1.5070777E-1,4.427929E-1,5.9151614E-1,5.191129E-1,0E0,0E0,0E0,0E0,0E0,1.1072836E0,3.2154083E-2,0E0,2.3778093E-1,3.972898E-1,0E0,0E0,0E0,4.1704506E-1,0E0,4.3162155E-1,8.6205196E-1,8.8247555E-1,4.5485336E-1,6.9988906E-1,6.66267E-1,9.736458E-1,1.1066389E0,5.622474E-1,7.943481E-2,4.4675398E-1,7.2041774E-1,2.758572E-1,6.325858E-1,0E0,5.2952725E-1,0E0,5.193927E-1,2.5164127E-2,4.710859E-1,0E0,1.8055661E-1,4.5945072E-1,0E0,0E0,0E0,0E0,0E0,2.1330988E-1,0E0,0E0,3.2519907E-1,0E0,0E0,0E0,0E0,4.214421E-1,0E0,0E0,4.6691418E-1,0E0,2.9013342E-1,6.62487E-1,1.6013448E0,0E0,4.817735E-1,4.3371683E-1,1.7539907E-1,3.8105375E-1,3.2991186E-1,4.154166E-1,5.1648235E-1,1.0033934E0,7.7785605E-1,7.373626E-1,6.7653286E-1,2.4519415E-1,0E0,4.663539E-1,5.2631336E-1,7.013632E-1,3.747848E-1,2.0783728E-1,0E0,3.231494E-1,0E0,3.0491993E-1,0E0,0E0,0E0,0E0,2.6188523E-1,0E0,0E0,0E0,0E0,0E0,2.4751186E-1,1.6717994E-1,0E0,0E0,0E0,5.631905E-1,0E0,1.2564683E-1,0E0,3.9633617E-1,4.732178E-1,6.508322E-1,9.3810433E-1,6.5674174E-1,4.0527672E-1,0E0,0E0,3.0620325E-1,0E0,8.9921E-2,1.575547E-1,0E0,0E0,0E0,0E0,2.936569E-1,0E0,0E0,0E0,5.4175997E-1,4.4949532E-1,4.5363677E-1,0E0,0E0,0E0,0E0,1.0233169E0,0E0,0E0,0E0,3.7423468E-1,0E0,3.4236646E-1,0E0,4.9587822E-1,0E0,0E0,0E0,0E0,0E0,0E0,0E0,2.4116457E-1,0E0,0E0,0E0,0E0,0E0,0E0,0E0,0E0,0E0,0E0,0E0,0E0,0E0,0E0,0E0,0E0,0E0,0E0,0E0,0E0,0E0,0E0,0E0,0E0,0E0,0E0,0E0,0E0,0E0,0E0,0E0,0E0,0E0,0E0,0E0,0E0,0E0,0E0,0E0,0E0,0E0,0E0,0E0,0E0,0E0,0E0],"parents":[2147483647,0,0,1,1,2,2,3,3,4,4,5,5,6,6,7,7,9,9,10,10,11,11,12,12,13,13,14,14,15,15,16,16,17,17,18,18,19,19,20,20,21,21,23,23,24,24,25,25,26,26,28,28,29,29,31,31,32,32,33,33,35,35,36,36,39,39,40,40,41,41,42,42,43,43,47,47,48,48,50,50,53,53,55,55,56,56,57,57,58,58,59,59,60,60,61,61,62,62,63,63,65,65,66,66,67,67,69,69,70,70,71,71,72,72,75,75,76,76,77,77,80,80,83,83,84,84,88,88,89,89,90,90,91,91,97,97,98,98,100,100,101,101,105,105,107,107,108,108,109,109,110,110,111,111,112,112,113,113,114,114,115,115,116,116,117,117,118,118,119,119,120,120,122,122,124,124,125,125,126,126,128,128,129,129,135,135,138,138,143,143,146,146,148,148,149,149,150,150,152,152,153,153,154,154,155,155,156,156,157,157,158,158,159,159,160,160,161,161,162,162,163,163,165,165,166,166,167,167,168,168,169,169,171,171,173,173,178,178,184,184,185,185,189,189,191,191,193,193,194,194,195,195,196,196,197,197,198,198,201,201,203,203,204,204,209,209,213,213,214,214,215,215,220,220,224,224,226,226,228,228,236,236],"right_children":[2,4,6,8,10,12,14,16,-1,18,20,22,24,26,28,30,32,34,36,38,40,42,-1,44,46,48,50,-1,52,54,-1,56,58,60,-1,62,64,-1,-1,66,68,70,72,74,-1,-1,-1,76,78,-1,80,-1,-1,82,-1,84,86,88,90,92,94,96,98,100,-1,102,104,106,-1,108,110,112,114,-1,-1,116,118,120,-1,-1,122,-1,-1,124,126,-1,-1,-1,128,130,132,134,-1,-1,-1,-1,-1,136,138,-1,140,142,-1,-1,-1,144,-1,146,148,150,152,154,156,158,160,162,164,166,168,170,172,-1,174,-1,176,178,180,-1,182,184,-1,-1,-1,-1,-1,186,-1,-1,188,-1,-1,-1,-1,190,-1,-1,192,-1,194,196,198,-1,200,202,204,206,208,210,212,214,216,218,220,222,-1,224,226,228,230,232,-1,234,-1,236,-1,-1,-1,-1,238,-1,-1,-1,-1,-1,240,242,-1,-1,-1,244,-1,246,-1,248,250,252,254,256,258,-1,-1,260,-1,262,264,-1,-1,-1,-1,266,-1,-1,-1,268,270,272,-1,-1,-1,-1,274,-1,-1,-1,276,-1,278,-1,280,-1,-1,-1,-1,-1,-1,-1,282,-1,-1,-1,-1,-1,-1,-1,-1,-1,-1,-1,-1,-1,-1,-1,-1,-1,-1,-1,-1,-1,-1,-1,-1,-1,-1,-1,-1,-1,-1,-1,-1,-1,-1,-1,-1,-1,-1,-1,-1,-1,-1,-1,-1,-1,-1],"split_conditions":[-4.9708688E-1,-7.706894E-2,3.934791E-1,1.7194196E0,4.105278E-2,1.7019502E0,1.996077E0,-1.1368486E0,3.2130327E-2,-1.0669751E0,-9.964731E-1,1.4190024E0,1.2440324E0,1.6008523E0,8.840504E-1,-2.596921E-1,1.7664582E-1,-2.4017556E-1,3.0708923E0,-1.7585583E0,-1.9929461E-1,1.6430956E-1,3.429007E-2,1.8176891E0,1.8176891E0,1.6430956E-1,-1.498705E-1,-2.0758048E-2,-7.0502645E-1,9.620904E-1,-3.1720843E-2,6.9183517E-1,4.19067E-1,-2.0709057E-1,3.2832492E-2,-6.291683E-1,2.503958E-1,2.7956376E-2,-3.276679E-2,-1.0757809E0,7.362789E-1,-8.4954137E-1,-6.51929E-1,-2.962267E-1,3.543308E-2,2.21107E-2,-2.0758048E-2,5.7326776E-1,1.6481422E0,3.320461E-2,1.2315385E0,-1.9124527E-2,3.7168037E-2,-1.7171481E0,-2.6246099E-2,-1.2027309E0,-1.4229972E0,-1.225671E-1,-6.411147E-1,1.6140733E0,-1.7402823E0,-8.8327825E-1,-4.2940712E-1,-6.529739E-1,3.0305376E-2,-2.962267E-1,1.3143317E0,9.148439E-2,-2.8315986E-2,7.760399E-1,1.4985089E0,1.6518193E0,-4.241398E-1,-2.0758048E-2,2.7956376E-2,-3.9948744E-1,1.1265824E0,4.5746878E-1,-1.950837E-2,-3.2746837E-2,-3.445601E-1,-2.0758048E-2,3.3787865E-2,-6.291683E-1,3.0708923E0,2.3777664E-2,-2.5512878E-2,3.413173E-2,-2.544698E-1,4.5291877E0,3.0708923E0,-7.455108E-1,3.1662084E-2,2.0692045E-2,-3.2344222E-2,-2.7006561E-2,3.1201286E-2,-5.4576963E-1,1.1536028E0,-3.134655E-2,-1.4229972E0,1.6430956E-1,3.179456E-2,3.799342E-2,-1.8106382E-2,2.1595662E0,3.3717465E-2,-1.5279254E0,9.9515736E-1,9.148439E-2,9.899805E-2,-8.8431615E-1,-8.890639E-1,-4.2163166E-1,3.1866345E-1,-9.678017E-1,1.9953096E-2,2.2896342E0,8.9171433E-1,-7.704964E-1,-2.1194832E-1,2.9815609E-2,9.148439E-2,2.516622E-2,9.899805E-2,2.0527166E-1,-1.538736E0,-2.883627E-2,-1.4229972E0,-1.7634165E0,2.21107E-2,3.2764178E-2,-2.6297683E-2,-2.7496144E-2,2.7625224E-2,-8.8327825E-1,3.0586168E-2,-3.5335835E-2,-2.4987741E-1,-1.868645E-2,2.6670588E-2,1.9327134E-2,-3.555245E-2,7.582137E-1,2.7956376E-2,2.21107E-2,8.1213707E-1,-3.2192327E-2,3.6493188E-1,9.9515736E-1,8.287585E-1,-3.6595177E-2,1.6604484E0,1.0502763E0,7.362789E-1,1.0075175E0,-3.542567E-1,1.0497813E0,-9.7603256E-1,-8.8431615E-1,9.9515736E-1,8.2272905E-1,-6.297078E-1,8.9177865E-1,-3.4106802E-2,-1.8130362E0,9.9515736E-1,5.161219E-1,6.5920526E-1,4.2882347E-1,3.7966225E-2,-3.413171E-2,3.2981068E-2,1.7984647E0,-3.1134127E-2,-3.371665E-2,2.4540398E-2,-3.592849E-2,-6.51929E-1,2.6658196E-2,-3.126616E-2,-1.8810939E-2,2.3777664E-2,2.1324063E-2,2.2896342E0,-9.6004206E-1,-3.4096792E-2,-3.0045612E-2,1.9760614E-2,6.523127E-1,-3.336009E-2,3.269467E-1,2.21107E-2,-1.402856E0,-5.6722313E-1,-2.9161403E-1,-1.3058954E0,7.582137E-1,-1.3470006E0,-2.6124844E-2,3.0583167E-2,-9.9998724E-1,-2.8801886E-2,-1.3058954E0,-2.656093E-1,-3.2477636E-2,2.0081455E-2,3.22695E-2,-1.840474E-2,-2.656093E-1,3.5842158E-2,2.21107E-2,-3.69041E-2,1.6140733E0,4.0593684E-1,2.2896342E0,3.128552E-2,-3.6605187E-2,2.689558E-2,3.7547536E-2,8.9177865E-1,2.0202616E-2,-2.5607219E-2,-2.0547798E-2,7.665954E-1,3.0097798E-2,3.130847E-1,-2.8710369E-2,-1.3058954E0,1.9796995E-2,-3.414899E-2,-2.303353E-2,2.2556478E-2,2.0783737E-2,-2.9981649E-2,3.0086024E-2,6.603011E-1,6.7723403E-3,-3.1407993E-2,-3.496206E-2,9.1995E-4,2.0940298E-2,-1.9951332E-2,2.0748993E-2,-2.7701953E-2,-3.4413863E-2,-8.956675E-3,-2.0268528E-2,3.4178976E-2,-2.9901072E-2,1.634235E-2,5.4395436E-3,2.9916529E-2,2.9922042E-2,-5.148805E-3,-2.7205272E-2,1.0540416E-2,-2.212671E-2,3.0145137E-2,2.938444E-2,-2.0075092E-2,1.06118E-2,3.394199E-2,-1.9269425E-2,2.0429386E-2,-2.8664028E-2,2.1571819E-2,-2.3334784E-2,2.7789107E-2,-1.9207183E-2,3.5802852E-2,-2.3821091E-2,1.4765325E-2,-2.0576507E-2,2.0467287E-2,3.9387997E-2,7.6175793E-3,1.9664336E-2,-3.310265E-2,-9.709748E-3,3.215128E-2,1.954566E-2,-2.5980039E-2],"split_indices":[0,1,3,4,2,0,4,6,0,5,3,7,2,4,3,2,5,3,13,4,3,1,0,0,0,1,0,0,7,5,0,4,5,6,0,7,3,0,0,0,7,4,4,4,0,0,0,4,5,0,3,0,0,2,0,5,0,6,1,1,2,6,5,2,0,4,6,7,0,0,2,11,3,0,0,1,4,2,0,0,5,0,0,7,13,0,0,0,7,7,13,2,0,0,0,0,0,5,5,0,0,1,0,0,0,6,0,3,8,7,4,2,4,2,2,6,4,12,6,4,7,0,7,0,4,7,0,0,0,2,0,0,0,0,0,6,0,0,7,0,0,0,0,2,0,0,7,0,2,8,5,0,2,1,7,0,5,10,3,2,8,3,6,0,0,6,8,3,3,0,0,0,0,4,0,0,0,0,4,0,0,0,0,0,12,0,0,0,0,4,0,5,0,4,3,6,6,2,2,0,0,2,0,6,0,0,0,0,0,0,0,0,0,1,1,12,0,0,0,0,0,0,0,0,20,0,0,0,6,0,0,0,0,0,0,0,0,0,0,0,0,0,0,0,0,0,0,0,0,0,0,0,0,0,0,0,0,0,0,0,0,0,0,0,0,0,0,0,0,0,0,0,0,0,0,0,0,0,0,0,0,0,0],"split_type":[0,0,0,0,0,0,0,0,0,0,0,0,0,0,0,0,0,0,0,0,0,0,0,0,0,0,0,0,0,0,0,0,0,0,0,0,0,0,0,0,0,0,0,0,0,0,0,0,0,0,0,0,0,0,0,0,0,0,0,0,0,0,0,0,0,0,0,0,0,0,0,0,0,0,0,0,0,0,0,0,0,0,0,0,0,0,0,0,0,0,0,0,0,0,0,0,0,0,0,0,0,0,0,0,0,0,0,0,0,0,0,0,0,0,0,0,0,0,0,0,0,0,0,0,0,0,0,0,0,0,0,0,0,0,0,0,0,0,0,0,0,0,0,0,0,0,0,0,0,0,0,0,0,0,0,0,0,0,0,0,0,0,0,0,0,0,0,0,0,0,0,0,0,0,0,0,0,0,0,0,0,0,0,0,0,0,0,0,0,0,0,0,0,0,0,0,0,0,0,0,0,0,0,0,0,0,0,0,0,0,0,0,0,0,0,0,0,0,0,0,0,0,0,0,0,0,0,0,0,0,0,0,0,0,0,0,0,0,0,0,0,0,0,0,0,0,0,0,0,0,0,0,0,0,0,0,0,0,0,0,0,0,0,0,0,0,0,0,0,0,0,0,0,0,0,0,0,0,0,0,0,0,0],"sum_hessian":[8.24E2,2.79E2,5.45E2,1.37E2,1.42E2,3.46E2,1.99E2,1.33E2,4E0,8.6E1,5.6E1,3.3E2,1.6E1,1.72E2,2.7E1,1.5E1,1.18E2,2.2E1,6.4E1,1E1,4.6E1,3.23E2,7E0,1.4E1,2E0,1.49E2,2.3E1,1E0,2.6E1,9E0,6E0,7.1E1,4.7E1,1.7E1,5E0,5.2E1,1.2E1,2E0,8E0,2.4E1,2.2E1,2.06E2,1.17E2,3E0,1.1E1,1E0,1E0,1.1E2,3.9E1,4E0,1.9E1,1E0,2.5E1,7E0,2E0,6.8E1,3E0,9E0,3.8E1,8E0,9E0,5E0,4.7E1,9E0,3E0,1E1,1.4E1,1.9E1,3E0,5.1E1,1.55E2,4.8E1,6.9E1,1E0,2E0,4.9E1,6.1E1,3.8E1,1E0,6E0,1.3E1,1E0,6E0,1.5E1,5.3E1,1E0,2E0,4E0,5E0,3.3E1,5E0,5E0,3E0,1E0,8E0,2E0,3E0,1.7E1,3E1,6E0,3E0,6E0,4E0,1.3E1,1E0,1.5E1,4E0,3.1E1,2E1,1.42E2,1.3E1,3.6E1,1.2E1,2E1,4.9E1,4.2E1,7E0,3.7E1,2.4E1,2.9E1,9E0,3E0,1E1,1E0,1.4E1,4.7E1,6E0,3E0,2E0,3.2E1,1E0,3E0,2E0,3E0,2E0,1.4E1,3E0,2.5E1,5E0,1E0,2E0,1E0,5E0,1.3E1,2E0,1E0,3E1,7E0,1.3E1,1.01E2,4.1E1,9E0,4E0,7E0,2.9E1,7E0,5E0,6E0,1.4E1,2.7E1,2.2E1,6E0,3.6E1,3E0,4E0,3E1,7E0,1.9E1,5E0,2E0,2.7E1,4E0,5E0,6E0,4E0,1.3E1,1E0,3.9E1,8E0,1E0,5E0,1E0,1E0,1E0,3.1E1,2E0,1.2E1,4E0,1E0,8E0,5E0,2.9E1,1E0,6E0,7E0,4.4E1,5.7E1,3.1E1,1E1,2E0,2E0,4E0,3E0,2.7E1,2E0,6E0,1E0,4E0,1E0,3E0,3E0,1E0,1.3E1,8E0,1.9E1,1.9E1,3E0,4E0,2E0,1E1,2.6E1,1E0,2E0,1E0,2.9E1,3E0,4E0,2E0,1.7E1,1E0,4E0,1E0,1E0,1E0,3E0,3E0,3E0,2E0,6E0,2.9E1,2E0,1E0,1E0,5E0,3E0,2.6E1,3E0,1E0,5E0,3E0,4E0,2.5E1,1.9E1,8E0,4.9E1,2.6E1,5E0,1E0,9E0,3E0,1E0,3E0,2.4E1,1E0,1E0,2E0,1E0,6E0,2E0,1E0,1.8E1,1.6E1,3E0,8E0,1.8E1,2.4E1,5E0,1E0,3E0,3E0,1.4E1,1E0,2E0],"tree_param":{"num_deleted":"0","num_feature":"24","num_nodes":"283","size_leaf_vector":"1"}},{"base_weights":[2.112787E-4,-1.3020845E-1,6.7092806E-2,-1.9328451E-1,-6.84273E-2,1.2992892E-2,1.6062069E-1,-2.10084E-1,2.9559905E-2,-1.5177657E-1,1.5872352E-2,7.016667E-4,2.51546E-1,1.3958046E-1,2.8488284E-1,-6.2312756E-2,-2.2818701E-1,-2.1300548E-1,7.583748E-2,-1.5477882E-1,5.609683E-2,-7.0090233E-3,3.1289693E-2,2.833721E-1,8.566797E-3,1.6191791E-1,-5.844526E-3,-1.9720146E-2,3.1004158E-1,1.0331297E-1,-2.9001912E-2,-2.33681E-1,2.1005167E-2,1.0394284E-1,-2.325386E-1,2.03621E-1,-1.710719E-1,2.6092617E-2,-2.4580684E-1,2.798715E-1,-1.3228001E-2,-4.4513397E-2,5.8841944E-2,9.7093895E-2,3.2185048E-2,2.1005167E-2,-1.9720146E-2,1.2578763E-1,2.581315E-1,3.054824E-2,-8.338403E-2,-1.8168299E-2,3.3594187E-2,2.2100255E-1,-2.449636E-2,1.9029697E-2,-2.3893121E-1,-1.763396E-2,2.561502E-2,2.1135699E-2,-2.5325525E-1,2.5910333E-1,-1.7560108E-2,1.8757949E-2,-2.803181E-2,-3.0162856E-2,2.220118E-2,8.204023E-3,3.2446574E-2,9.984476E-2,-1.5259294E-1,-1.7496273E-1,-7.449408E-4,1.4619142E-1,-3.1432875E-3,-1.9720146E-2,2.6092617E-2,1.5514202E-1,-7.4046524E-3,2.7425432E-1,-1.8532952E-2,-2.9939964E-2,3.0579785E-2,-1.9720146E-2,3.0891761E-2,-2.7227747E-1,-1.8154287E-1,-2.1884559E-2,2.5407175E-2,-1.926496E-1,-3.16025E-2,-1.7560108E-2,3.2691505E-2,-1.7399264E-2,2.0729441E-2,-1.8980427E-2,2.021103E-2,1.952225E-1,-1.8692657E-1,-2.0985423E-1,2.6092617E-2,-2.465054E-1,-5.7613797E-2,2.160222E-2,-2.2895202E-1,2.0880254E-1,-4.325492E-2,-1.587279E-1,6.2265113E-2,-1.3483174E-2,1.9129518E-1,-3.0171154E-2,7.9591766E-2,3.1987968E-1,1.0995286E-1,2.757944E-2,-6.1369143E-2,-2.8031006E-1,-6.564623E-2,-1.0964987E-1,-3.228118E-2,-2.3715284E-1,2.572616E-2,2.2576658E-1,-1.9255769E-2,2.021103E-2,-2.8545111E-2,-3.0940482E-2,5.004602E-3,2.1005167E-2,-2.680089E-1,-2.9375497E-2,8.1439294E-2,6.6908635E-2,-8.8941984E-2,-2.806434E-1,2.2151789E-2,-4.4984024E-2,2.6951885E-1,-2.1212763E-1,1.8911783E-1,1.3334735E-1,-2.8444782E-1,1.8135081E-1,-8.541595E-2,1.8993266E-1,-3.3121046E-2,2.2044422E-1,1.9892432E-2,-2.815091E-2,1.4650582E-1,-3.0213296E-3,3.4305196E-2,-1.4288601E-1,3.0232644E-2,1.0815846E-1,-2.8643398E-2,-2.085993E-1,-2.9636675E-1,2.258878E-2,-2.3812018E-2,-1.8298401E-1,2.3862875E-1,-2.850587E-1,2.1063501E-2,6.1699558E-2,3.3947904E-2,-2.4939673E-2,1.5664448E-1,-2.9094598E-1,2.1005167E-2,1.3060948E-1,-2.7888656E-2,1.3516046E-1,-1.2690502E-2,-1.8932386E-1,2.1116365E-1,2.0664647E-2,-3.3847142E-2,1.411595E-1,-2.6641745E-2,1.6557169E-1,3.3926837E-2,-2.9693836E-2,1.9077381E-2,2.9687941E-2,-1.7484503E-2,-9.818207E-2,3.3153992E-2,2.1005167E-2,-3.3477288E-2,-7.9481244E-2,2.8965768E-1,-1.5610656E-1,2.8939104E-2,2.4793674E-1,-1.9505406E-2,1.3330662E-1,3.2101348E-1,-1.0313861E-1,2.9173916E-2,2.2426248E-1,-2.3927497E-2,-2.1881854E-2,2.1428654E-2,1.974455E-2,-2.7733028E-2,2.782957E-2,-8.90184E-2,2.390791E-2,-2.5438314E-2,-3.08139E-2,-1.7330473E-2,2.025786E-2,-2.0560483E-2,-1.6118871E-2,3.5082996E-2,-8.382483E-3,-3.1242063E-2,2.6721997E-2,-2.3211412E-2,2.2361364E-2,-3.3666648E-2,2.9082263E-2,-1.9003404E-2,-1.2260708E-2,-3.1970948E-2,-5.2599865E-3,2.516903E-2,1.2210105E-3,2.1675736E-2,2.055641E-2,-1.3900963E-2,-3.0656613E-3,-3.1102857E-2,-2.1020375E-2,2.7432075E-2,2.7180606E-2,-1.9071339E-2,3.1906795E-2,-3.3505706E-3,-2.6753096E-2,2.0493228E-2,2.6907265E-2,-2.1750702E-2,-2.0708E-2,3.2670073E-2,-2.1579107E-2,1.3657925E-2,-1.836947E-2,3.163063E-2,2.9020999E-2,3.2004283E-3,-1.9520408E-2,3.464214E-2,1.4815442E-2,-3.3380393E-2,2.7824784E-2,-2.1178082E-2,1.8568376E-2,-2.4248037E-2],"categories":[],"categories_nodes":[],"categories_segments":[],"categories_sizes":[],"default_left":[0,0,0,0,0,0,0,0,0,0,0,0,0,0,0,0,0,0,0,0,0,0,0,0,0,0,0,0,0,0,0,0,0,0,0,0,0,0,0,0,0,0,0,0,0,0,0,0,0,0,0,0,0,0,0,0,0,0,0,0,0,0,0,0,0,0,0,0,0,0,0,0,0,0,0,0,0,0,0,0,0,0,0,0,0,0,0,0,0,0,0,0,0,0,0,0,0,0,0,0,0,0,0,0,0,0,0,0,0,0,0,0,0,0,0,0,0,0,0,0,0,0,0,0,0,0,0,0,0,0,0,0,0,0,0,0,0,0,0,0,0,0,0,0,0,0,0,0,0,0,0,0,0,0,0,0,0,0,0,0,0,0,0,0,0,0,0,0,0,0,0,0,0,0,0,0,0,0,0,0,0,0,0,0,0,0,0,0,0,0,0,0,0,0,0,0,0,0,0,0,0,0,0,0,0,0,0,0,0,0,0,0,0,0,0,0,0,0,0,0,0,0,0,0,0,0,0,0,0,0,0,0,0,0,0,0,0,0,0,0,0,0,0,0,0,0,0,0,0,0,0,0,0,0,0,0,0,0,0,0,0],"id":4,"left_children":[1,3,5,7,9,11,13,15,-1,17,19,21,23,25,27,29,31,33,35,37,39,41,-1,43,45,47,49,-1,51,53,-1,55,-1,57,59,61,63,-1,65,67,69,71,73,75,-1,-1,-1,77,79,-1,81,-1,-1,83,-1,-1,85,-1,-1,87,89,91,-1,-1,-1,-1,93,95,-1,97,99,101,103,105,107,-1,-1,109,111,113,-1,-1,115,-1,-1,117,119,-1,-1,121,-1,-1,-1,-1,-1,-1,-1,123,125,127,-1,129,131,133,135,137,139,141,143,145,147,-1,149,151,153,-1,155,157,159,161,-1,163,-1,165,-1,-1,-1,-1,167,-1,169,-1,171,173,175,177,-1,179,181,183,185,187,189,191,193,195,-1,197,199,-1,201,203,-1,205,-1,207,-1,209,211,-1,-1,213,215,217,219,221,-1,-1,223,225,-1,227,-1,229,231,233,235,-1,-1,237,-1,239,-1,-1,-1,-1,-1,241,-1,-1,-1,243,245,247,-1,249,-1,251,253,255,-1,257,-1,-1,-1,-1,-1,-1,259,-1,-1,-1,-1,-1,-1,-1,-1,-1,-1,-1,-1,-1,-1,-1,-1,-1,-1,-1,-1,-1,-1,-1,-1,-1,-1,-1,-1,-1,-1,-1,-1,-1,-1,-1,-1,-1,-1,-1,-1,-1,-1,-1,-1,-1,-1,-1,-1,-1,-1,-1,-1],"loss_changes":[7.2049394E0,1.077909E0,2.7605913E0,1.1954942E0,1.0071721E0,1.0172657E0,4.8313713E-1,3.4424543E-1,0E0,1.0195863E0,5.0291616E-1,7.989898E-1,1.2903476E-1,5.629239E-1,4.007423E-1,6.333872E-1,3.3559847E-1,3.7705684E-1,5.39649E-1,5.9390867E-1,9.189775E-1,8.0280185E-1,0E0,7.626557E-2,1.6580006E-1,4.8896408E-1,6.048356E-1,0E0,4.0490174E-1,4.6402282E-1,0E0,3.0813313E-1,0E0,2.1581359E-1,2.8913808E-1,2.7694017E-1,2.876697E-1,0E0,1.8622446E-1,1.6694546E-1,7.4012107E-1,1.1817498E0,6.3935614E-1,2.4431534E-1,0E0,0E0,0E0,4.3513417E-1,3.3682156E-1,0E0,5.0151485E-1,0E0,0E0,3.5505053E-1,0E0,0E0,1.744709E-1,0E0,0E0,3.3510393E-1,1.2932777E-1,3.521871E-1,0E0,0E0,0E0,0E0,1.4501014E-1,1.5354654E-1,0E0,7.476338E-1,5.520078E-1,4.2236173E-1,8.0051166E-1,5.902425E-1,7.222411E-1,0E0,0E0,5.573456E-1,5.6169033E-1,2.571845E-1,0E0,0E0,3.3258635E-1,0E0,0E0,1.0110283E-1,4.317912E-1,0E0,0E0,6.2164044E-1,0E0,0E0,0E0,0E0,0E0,0E0,0E0,2.8036094E-1,3.2600027E-1,4.0794563E-1,0E0,3.7045836E-1,7.1348256E-1,7.2214675E-1,3.8816327E-1,5.8225644E-1,5.502555E-1,8.090436E-1,8.948254E-1,1.1616307E0,3.7033176E-1,0E0,4.5200902E-1,2.2550678E-1,5.295934E-1,0E0,4.50682E-1,1.762724E-2,2.5491655E-1,8.60968E-1,0E0,3.2762623E-1,0E0,3.3352697E-1,0E0,0E0,0E0,0E0,3.0910835E-1,0E0,4.0103817E-1,0E0,2.8446728E-1,5.5585945E-1,1.3052351E0,4.362712E-1,0E0,3.6735457E-1,1.6133499E-1,3.3001104E-1,2.8723514E-1,3.5376313E-1,4.4360542E-1,8.1401974E-1,6.5456843E-1,2.9399988E-1,0E0,5.180619E-1,4.314366E-1,0E0,5.0361574E-1,1.8757315E-1,0E0,2.8353572E-1,0E0,2.5960332E-1,0E0,3.8876063E-1,2.4828434E-2,0E0,0E0,2.771381E-1,3.2570982E-1,9.494662E-2,3.7363207E-1,6.557928E-1,0E0,0E0,2.878496E-1,1.06061935E-1,0E0,3.0161965E-1,0E0,5.491334E-1,1.3519224E0,6.084027E-1,3.5039905E-1,0E0,0E0,2.686273E-1,0E0,4.384975E-1,0E0,0E0,0E0,0E0,0E0,2.60154E-1,0E0,0E0,0E0,4.9151E-1,4.3566668E-1,3.788487E-1,0E0,3.532083E-1,0E0,5.6292045E-1,4.4798732E-1,5.7113576E-1,0E0,3.6494684E-1,0E0,0E0,0E0,0E0,0E0,0E0,2.1364999E-1,0E0,0E0,0E0,0E0,0E0,0E0,0E0,0E0,0E0,0E0,0E0,0E0,0E0,0E0,0E0,0E0,0E0,0E0,0E0,0E0,0E0,0E0,0E0,0E0,0E0,0E0,0E0,0E0,0E0,0E0,0E0,0E0,0E0,0E0,0E0,0E0,0E0,0E0,0E0,0E0,0E0,0E0,0E0,0E0,0E0,0E0,0E0,0E0,0E0,0E0,0E0,0E0],"parents":[2147483647,0,0,1,1,2,2,3,3,4,4,5,5,6,6,7,7,9,9,10,10,11,11,12,12,13,13,14,14,15,15,16,16,17,17,18,18,19,19,20,20,21,21,23,23,24,24,25,25,26,26,28,28,29,29,31,31,33,33,34,34,35,35,36,36,38,38,39,39,40,40,41,41,42,42,43,43,47,47,48,48,50,50,53,53,56,56,59,59,60,60,61,61,66,66,67,67,69,69,70,70,71,71,72,72,73,73,74,74,77,77,78,78,79,79,82,82,85,85,86,86,89,89,97,97,98,98,99,99,101,101,102,102,103,103,104,104,105,105,106,106,107,107,108,108,109,109,110,110,112,112,113,113,114,114,116,116,117,117,118,118,119,119,121,121,123,123,128,128,130,130,132,132,133,133,134,134,135,135,137,137,138,138,139,139,140,140,141,141,142,142,143,143,144,144,145,145,147,147,148,148,150,150,151,151,153,153,155,155,157,157,158,158,161,161,162,162,163,163,164,164,165,165,168,168,169,169,171,171,173,173,174,174,175,175,176,176,179,179,181,181,187,187,191,191,192,192,193,193,195,195,197,197,198,198,199,199,201,201,208,208],"right_children":[2,4,6,8,10,12,14,16,-1,18,20,22,24,26,28,30,32,34,36,38,40,42,-1,44,46,48,50,-1,52,54,-1,56,-1,58,60,62,64,-1,66,68,70,72,74,76,-1,-1,-1,78,80,-1,82,-1,-1,84,-1,-1,86,-1,-1,88,90,92,-1,-1,-1,-1,94,96,-1,98,100,102,104,106,108,-1,-1,110,112,114,-1,-1,116,-1,-1,118,120,-1,-1,122,-1,-1,-1,-1,-1,-1,-1,124,126,128,-1,130,132,134,136,138,140,142,144,146,148,-1,150,152,154,-1,156,158,160,162,-1,164,-1,166,-1,-1,-1,-1,168,-1,170,-1,172,174,176,178,-1,180,182,184,186,188,190,192,194,196,-1,198,200,-1,202,204,-1,206,-1,208,-1,210,212,-1,-1,214,216,218,220,222,-1,-1,224,226,-1,228,-1,230,232,234,236,-1,-1,238,-1,240,-1,-1,-1,-1,-1,242,-1,-1,-1,244,246,248,-1,250,-1,252,254,256,-1,258,-1,-1,-1,-1,-1,-1,260,-1,-1,-1,-1,-1,-1,-1,-1,-1,-1,-1,-1,-1,-1,-1,-1,-1,-1,-1,-1,-1,-1,-1,-1,-1,-1,-1,-1,-1,-1,-1,-1,-1,-1,-1,-1,-1,-1,-1,-1,-1,-1,-1,-1,-1,-1,-1,-1,-1,-1,-1,-1],"split_conditions":[-4.9708688E-1,-7.706894E-2,3.934791E-1,1.7194196E0,-1.6715522E-1,1.7019502E0,1.996077E0,-1.1368486E0,2.9559905E-2,-1.3797319E-1,-9.964731E-1,1.4190024E0,1.2440324E0,1.6008523E0,8.840504E-1,-2.596921E-1,4.5291877E0,-1.60515E0,-7.68645E-1,-1.7585583E0,-6.8986595E-1,1.6430956E-1,3.1289693E-2,1.8176891E0,1.8176891E0,1.6430956E-1,-1.498705E-1,-1.9720146E-2,-7.0502645E-1,9.620904E-1,-2.9001912E-2,-2.0178928E0,2.1005167E-2,2.4485199E-1,-1.6795133E0,2.4194975E0,-1.1881857E0,2.6092617E-2,-6.023197E-2,-9.7603256E-1,5.536205E-1,-8.4954137E-1,-6.51929E-1,-2.962267E-1,3.2185048E-2,2.1005167E-2,-1.9720146E-2,-5.605723E-1,1.6481422E0,3.054824E-2,1.2315385E0,-1.8168299E-2,3.3594187E-2,-1.7171481E0,-2.449636E-2,1.9029697E-2,1.7664582E-1,-1.763396E-2,2.561502E-2,1.0502763E0,-4.2940712E-1,-1.3238664E0,-1.7560108E-2,1.8757949E-2,-2.803181E-2,-3.0162856E-2,-2.11743E0,-1.1915196E0,3.2446574E-2,6.523127E-1,2.49766E0,7.760399E-1,1.4985089E0,1.6518193E0,-4.241398E-1,-1.9720146E-2,2.6092617E-2,4.2882347E-1,-2.3789464E-1,4.5746878E-1,-1.8532952E-2,-2.9939964E-2,-3.445601E-1,-1.9720146E-2,3.0891761E-2,6.9183517E-1,1.3358967E-1,-2.1884559E-2,2.5407175E-2,-5.4576963E-1,-3.16025E-2,-1.7560108E-2,3.2691505E-2,-1.7399264E-2,2.0729441E-2,-1.8980427E-2,2.021103E-2,1.7111714E0,-2.6061603E-1,5.7744336E-1,2.6092617E-2,-1.5279254E0,9.9515736E-1,9.148439E-2,2.5858173E0,-8.8431615E-1,-8.890639E-1,-4.2163166E-1,3.1866345E-1,-6.8199635E-2,1.0820928E0,-3.0171154E-2,-5.1416856E-1,-7.704964E-1,-2.1194832E-1,2.757944E-2,9.148439E-2,-1.2027309E0,-1.4229972E0,-1.6715522E-1,-3.228118E-2,-5.1416856E-1,2.572616E-2,-1.9910729E-1,-1.9255769E-2,2.021103E-2,-2.8545111E-2,-3.0940482E-2,3.190589E-1,2.1005167E-2,8.1213707E-1,-2.9375497E-2,6.2249166E-1,-1.9929461E-1,8.287585E-1,-9.678017E-1,2.2151789E-2,1.0502763E0,-9.7970337E-1,1.0075175E0,-3.542567E-1,1.0497813E0,-9.7603256E-1,-8.8431615E-1,9.9515736E-1,7.665954E-1,-3.3121046E-2,-2.230288E-2,1.08706E0,-2.815091E-2,1.5862114E0,4.2882347E-1,3.4305196E-2,-3.413171E-2,3.0232644E-2,1.7984647E0,-2.8643398E-2,-6.291683E-1,3.0708923E0,2.258878E-2,-2.3812018E-2,-1.7634165E0,-2.5670424E-1,-7.429555E-1,-3.0596057E-1,-5.5789053E-1,3.3947904E-2,-2.4939673E-2,4.459689E0,-1.498705E-1,2.1005167E-2,-3.257356E-1,-2.7888656E-2,-2.8282633E-1,-4.2163166E-1,-4.0369934E-1,-1.3470006E0,2.0664647E-2,-3.3847142E-2,-9.9998724E-1,-2.6641745E-2,-1.0076313E0,3.3926837E-2,-2.9693836E-2,1.9077381E-2,2.9687941E-2,-1.7484503E-2,-2.656093E-1,3.3153992E-2,2.1005167E-2,-3.3477288E-2,-5.5331016E-1,-3.8134807E-1,2.2896342E0,2.8939104E-2,-1.2313294E0,-1.9505406E-2,-6.297078E-1,-1.8130362E0,9.899805E-2,2.9173916E-2,8.7724286E-1,-2.3927497E-2,-2.1881854E-2,2.1428654E-2,1.974455E-2,-2.7733028E-2,2.782957E-2,6.603011E-1,2.390791E-2,-2.5438314E-2,-3.08139E-2,-1.7330473E-2,2.025786E-2,-2.0560483E-2,-1.6118871E-2,3.5082996E-2,-8.382483E-3,-3.1242063E-2,2.6721997E-2,-2.3211412E-2,2.2361364E-2,-3.3666648E-2,2.9082263E-2,-1.9003404E-2,-1.2260708E-2,-3.1970948E-2,-5.2599865E-3,2.516903E-2,1.2210105E-3,2.1675736E-2,2.055641E-2,-1.3900963E-2,-3.0656613E-3,-3.1102857E-2,-2.1020375E-2,2.7432075E-2,2.7180606E-2,-1.9071339E-2,3.1906795E-2,-3.3505706E-3,-2.6753096E-2,2.0493228E-2,2.6907265E-2,-2.1750702E-2,-2.0708E-2,3.2670073E-2,-2.1579107E-2,1.3657925E-2,-1.836947E-2,3.163063E-2,2.9020999E-2,3.2004283E-3,-1.9520408E-2,3.464214E-2,1.4815442E-2,-3.3380393E-2,2.7824784E-2,-2.1178082E-2,1.8568376E-2,-2.4248037E-2],"split_indices":[0,1,3,4,2,0,4,6,0,3,3,7,2,4,3,2,7,5,2,4,3,1,0,0,0,1,0,0,7,5,0,2,0,1,4,1,5,0,7,3,6,4,4,4,0,0,0,1,5,0,3,0,0,2,0,0,5,0,0,1,5,2,0,0,0,0,0,0,0,4,6,0,2,11,3,0,0,0,5,2,0,0,5,0,0,4,2,0,0,5,0,0,0,0,0,0,0,5,3,3,0,3,8,7,2,2,4,2,2,5,2,0,2,4,7,0,7,5,0,2,0,2,0,5,0,0,0,0,7,0,7,0,7,3,5,6,0,1,5,0,5,10,3,2,8,20,0,7,4,0,0,0,0,0,0,4,0,7,13,0,0,2,4,7,2,5,0,0,2,0,0,7,0,2,2,3,2,0,0,2,0,4,0,0,0,0,0,0,0,0,0,7,0,12,0,2,0,6,6,4,0,5,0,0,0,0,0,0,0,0,0,0,0,0,0,0,0,0,0,0,0,0,0,0,0,0,0,0,0,0,0,0,0,0,0,0,0,0,0,0,0,0,0,0,0,0,0,0,0,0,0,0,0,0,0,0,0,0,0,0,0],"split_type":[0,0,0,0,0,0,0,0,0,0,0,0,0,0,0,0,0,0,0,0,0,0,0,0,0,0,0,0,0,0,0,0,0,0,0,0,0,0,0,0,0,0,0,0,0,0,0,0,0,0,0,0,0,0,0,0,0,0,0,0,0,0,0,0,0,0,0,0,0,0,0,0,0,0,0,0,0,0,0,0,0,0,0,0,0,0,0,0,0,0,0,0,0,0,0,0,0,0,0,0,0,0,0,0,0,0,0,0,0,0,0,0,0,0,0,0,0,0,0,0,0,0,0,0,0,0,0,0,0,0,0,0,0,0,0,0,0,0,0,0,0,0,0,0,0,0,0,0,0,0,0,0,0,0,0,0,0,0,0,0,0,0,0,0,0,0,0,0,0,0,0,0,0,0,0,0,0,0,0,0,0,0,0,0,0,0,0,0,0,0,0,0,0,0,0,0,0,0,0,0,0,0,0,0,0,0,0,0,0,0,0,0,0,0,0,0,0,0,0,0,0,0,0,0,0,0,0,0,0,0,0,0,0,0,0,0,0,0,0,0,0,0,0,0,0,0,0,0,0,0,0,0,0,0,0,0,0,0,0,0,0],"sum_hessian":[8.24E2,2.79E2,5.45E2,1.37E2,1.42E2,3.46E2,1.99E2,1.33E2,4E0,7.1E1,7.1E1,3.3E2,1.6E1,1.72E2,2.7E1,1.5E1,1.18E2,5.6E1,1.5E1,1.3E1,5.8E1,3.23E2,7E0,1.4E1,2E0,1.49E2,2.3E1,1E0,2.6E1,9E0,6E0,1.17E2,1E0,3E0,5.3E1,1E1,5E0,2E0,1.1E1,1.3E1,4.5E1,2.06E2,1.17E2,3E0,1.1E1,1E0,1E0,1.1E2,3.9E1,4E0,1.9E1,1E0,2.5E1,7E0,2E0,1E0,1.16E2,1E0,2E0,4E0,4.9E1,9E0,1E0,1E0,4E0,9E0,2E0,2E0,1.1E1,2.5E1,2E1,5.1E1,1.55E2,4.8E1,6.9E1,1E0,2E0,9E1,2E1,3.8E1,1E0,6E0,1.3E1,1E0,6E0,7.1E1,4.5E1,2E0,2E0,2.7E1,2.2E1,1E0,8E0,1E0,1E0,1E0,1E0,1.9E1,6E0,1.8E1,2E0,3.1E1,2E1,1.42E2,1.3E1,3.6E1,1.2E1,2E1,4.9E1,1.6E1,7.4E1,4E0,1.6E1,2.9E1,9E0,3E0,1E1,6.8E1,3E0,3.1E1,1.4E1,2.5E1,2E0,1.8E1,1E0,1E0,5E0,1.2E1,6E0,1E0,3E1,7E0,1.3E1,1.01E2,4.1E1,1.2E1,1E0,7E0,2.9E1,7E0,5E0,6E0,1.4E1,2.7E1,2.2E1,1E1,6E0,6.3E1,1.1E1,2E0,1.4E1,2E0,2.7E1,4E0,5E0,6E0,4E0,1.5E1,5.3E1,1E0,2E0,2.6E1,5E0,2.1E1,4E0,8E0,1E1,2E0,4E0,2.9E1,1E0,1.2E1,1E0,5.4E1,4.7E1,3.1E1,1E1,1E0,1.1E1,4E0,3E0,1.3E1,1.6E1,6E0,1E0,4E0,1E0,3E0,3E0,1E0,1.3E1,8E0,1.9E1,1.9E1,3E0,9E0,1E0,3.5E1,2.8E1,8E0,3E0,1.2E1,2E0,1E0,1E0,1E0,3E0,3E0,3E0,1E0,1.4E1,4.7E1,6E0,1E0,2.5E1,1E0,4E0,3E0,1.8E1,2E0,2E0,6E0,2E0,3E0,1E0,5E0,2.4E1,5E0,7E0,2.2E1,3.2E1,1.7E1,3E1,1.4E1,1.7E1,1E0,9E0,3E0,1E0,7E0,6E0,2E0,1E0,2E0,6E0,1E0,1.8E1,1.6E1,3E0,1E0,8E0,1.3E1,2.2E1,1E0,2.7E1,4E0,4E0,1.1E1,1E0,1E0,2E0],"tree_param":{"num_deleted":"0","num_feature":"24","num_nodes":"261","size_leaf_vector":"1"}},{"base_weights":[2.7161298E-4,-1.17441736E-1,6.0636938E-2,-1.7422599E-1,-6.182168E-2,1.2098262E-2,1.4454836E-1,-1.8957418E-1,2.719511E-2,-1.22788176E-1,3.231704E-2,9.353508E-4,2.2873506E-1,2.0295281E-2,1.6218282E-1,-1.940003E-1,1.9954909E-2,2.2831453E-2,-1.7242607E-1,-1.5706764E-1,7.595351E-2,-6.0942783E-3,2.8551841E-2,2.5760537E-1,8.138458E-3,1.6706425E-1,-1.6485721E-1,2.992022E-1,1.3626532E-1,-5.87269E-2,-2.1069838E-1,-6.2841095E-2,2.7604386E-2,-2.032885E-1,-3.3338822E-2,2.4353111E-2,-2.731486E-2,2.1228419E-1,1.7583422E-2,-3.978167E-2,5.4653645E-2,8.8977635E-2,2.923475E-2,1.9954909E-2,-1.873414E-2,2.9392377E-2,-1.9907147E-2,-3.2996364E-2,5.5243134E-2,-1.7450996E-2,3.2413382E-2,-4.2173322E-2,1.5508246E-1,9.164919E-2,-2.6516033E-2,1.8078214E-2,-2.1558952E-1,1.0132759E-1,-2.0430881E-1,5.3861465E-2,-2.3119706E-1,-1.4553727E-1,2.5549203E-2,7.916343E-3,2.932397E-2,-1.0446606E-1,1.1943649E-1,-1.5822755E-1,-5.4769975E-4,1.2529041E-1,1.1239091E-3,-1.873414E-2,2.4353111E-2,-1.658512E-1,2.2996867E-2,2.6825173E-2,-2.4718272E-2,-2.1537942E-1,1.8654498E-1,3.5006784E-2,1.7942831E-1,2.0029874E-1,-2.2863269E-2,-2.6398998E-1,-1.7932077E-1,-3.615148E-2,2.8221428E-2,1.8376691E-2,-2.6784688E-2,-2.4647292E-2,2.6564687E-2,-1.4471468E-1,-2.7395466E-1,-2.5961211E-2,9.0477996E-2,2.3194818E-2,-2.1875428E-2,1.7834195E-1,-2.4922806E-1,2.4874313E-1,-2.1813806E-2,-2.2192428E-1,-5.3631227E-2,3.72419E-2,-1.26534505E-2,3.3241753E-2,2.0897987E-1,8.3880395E-2,-1.1713979E-1,-2.8493105E-2,1.5523404E-2,7.53557E-2,-3.7330624E-2,-1.8260816E-2,2.7211947E-2,-1.637402E-1,1.4461404E-1,2.7302864E-1,1.4497785E-1,-1.873414E-2,2.8243897E-2,-1.6939315E-1,-2.9428616E-2,-1.0634819E-1,-2.5791585E-1,-2.3430979E-2,2.401101E-2,-2.4349391E-1,2.6188612E-2,-2.9088486E-2,-1.5493141E-1,-1.6350536E-2,2.296409E-2,-2.0098494E-2,2.9440433E-2,-3.0905997E-2,1.745455E-2,-1.4781736E-2,3.0922955E-2,-2.4067083E-2,1.0636361E-1,1.9954909E-2,-2.4195725E-1,-2.6805142E-2,7.27254E-2,2.0938307E-2,-1.6456416E-1,-9.261149E-2,2.0183784E-1,2.5101054E-1,-8.494131E-2,-1.1639639E-1,1.8462095E-1,-1.8930595E-1,1.2640241E-1,2.3776753E-2,-2.0593988E-2,1.8048638E-2,-2.078776E-2,8.4016815E-2,-3.0162154E-2,3.0367006E-2,-1.2837297E-2,-8.323916E-2,3.0250177E-1,8.905131E-2,2.2073069E-1,-2.2271848E-1,2.6191806E-2,-2.039822E-1,7.559459E-2,2.0057723E-2,-2.785118E-1,7.770141E-3,-2.8274763E-2,-2.5421847E-2,1.707519E-2,2.6992107E-2,-8.378477E-2,-2.6332575E-1,1.9954909E-2,-9.824991E-2,1.7862834E-1,9.83732E-2,-8.903443E-2,-2.5610733E-1,3.077559E-2,1.7025773E-1,-2.4107188E-1,-1.669763E-2,2.5541687E-1,2.757162E-1,-1.4625701E-2,-2.3210268E-2,1.7827138E-2,1.2385462E-1,-3.1206647E-2,-7.096018E-2,2.959688E-1,-2.4912637E-1,1.4216757E-1,-5.4753765E-2,2.7595801E-2,-1.7585365E-2,2.2925818E-2,-1.8526971E-1,2.4902066E-2,1.6841978E-2,-2.9327853E-2,3.3068176E-2,5.779662E-2,2.901808E-2,4.3831866E-2,2.5972083E-1,9.7283274E-2,5.111204E-3,-2.771524E-2,-2.8631428E-2,6.762706E-4,3.410878E-2,-6.4711473E-3,-2.9714812E-2,-1.1844611E-2,1.8557182E-2,-1.7391661E-2,1.8893091E-2,-2.3766695E-2,-2.92171E-2,-9.924966E-3,-3.1338517E-2,8.766401E-3,2.5039896E-2,-1.9776834E-2,-5.9604766E-3,1.7855428E-2,-7.299458E-5,-2.6069704E-2,1.0485413E-2,-3.126663E-2,-1.5296166E-2,2.6549393E-2,-3.0352354E-2,1.6049657E-2,3.17468E-2,4.808247E-4,3.0819077E-2,-3.2686372E-3,-8.992882E-3,3.0667443E-2,-2.0165429E-2,2.5764612E-2,-1.96726E-2,3.3426996E-2,-3.3553377E-2,5.9921104E-3,3.368109E-2,-2.2088122E-2,-1.9500935E-2,1.830065E-2,-2.9029999E-2,1.699408E-2,-1.9637274E-2,2.0797731E-2,9.4809225E-3,-1.5361944E-2,1.2295876E-2,3.1367294E-2,2.814497E-2,-2.493288E-2],"categories":[],"categories_nodes":[],"categories_segments":[],"categories_sizes":[],"default_left":[0,0,0,0,0,0,0,0,0,0,0,0,0,0,0,0,0,0,0,0,0,0,0,0,0,0,0,0,0,0,0,0,0,0,0,0,0,0,0,0,0,0,0,0,0,0,0,0,0,0,0,0,0,0,0,0,0,0,0,0,0,0,0,0,0,0,0,0,0,0,0,0,0,0,0,0,0,0,0,0,0,0,0,0,0,0,0,0,0,0,0,0,0,0,0,0,0,0,0,0,0,0,0,0,0,0,0,0,0,0,0,0,0,0,0,0,0,0,0,0,0,0,0,0,0,0,0,0,0,0,0,0,0,0,0,0,0,0,0,0,0,0,0,0,0,0,0,0,0,0,0,0,0,0,0,0,0,0,0,0,0,0,0,0,0,0,0,0,0,0,0,0,0,0,0,0,0,0,0,0,0,0,0,0,0,0,0,0,0,0,0,0,0,0,0,0,0,0,0,0,0,0,0,0,0,0,0,0,0,0,0,0,0,0,0,0,0,0,0,0,0,0,0,0,0,0,0,0,0,0,0,0,0,0,0,0,0,0,0,0,0,0,0,0,0,0,0,0,0,0,0,0,0,0,0,0,0,0,0,0,0,0,0,0,0,0,0,0,0],"id":5,"left_children":[1,3,5,7,9,11,13,15,-1,17,19,21,23,25,27,29,-1,31,33,35,37,39,-1,41,43,45,47,49,51,53,55,57,-1,59,61,-1,-1,63,65,67,69,71,-1,-1,-1,-1,73,-1,75,-1,-1,77,79,81,-1,-1,83,85,87,89,91,93,-1,95,-1,97,99,101,103,105,107,-1,-1,109,-1,-1,-1,111,113,115,117,119,-1,121,123,125,-1,-1,-1,-1,-1,127,129,-1,131,-1,-1,133,135,137,139,141,143,-1,145,147,149,151,153,-1,-1,155,-1,157,-1,159,161,163,165,-1,-1,167,-1,169,171,-1,-1,173,-1,-1,175,-1,-1,-1,-1,-1,-1,-1,-1,-1,177,-1,179,-1,181,183,185,187,189,191,193,195,197,199,201,-1,-1,-1,-1,203,-1,-1,205,207,209,211,213,215,-1,217,219,-1,221,223,-1,-1,-1,-1,225,227,-1,229,231,233,235,237,-1,239,241,-1,243,245,-1,-1,-1,247,-1,249,251,253,255,257,-1,-1,-1,259,-1,-1,-1,-1,261,-1,263,265,267,-1,-1,-1,-1,-1,-1,-1,-1,-1,-1,-1,-1,-1,-1,-1,-1,-1,-1,-1,-1,-1,-1,-1,-1,-1,-1,-1,-1,-1,-1,-1,-1,-1,-1,-1,-1,-1,-1,-1,-1,-1,-1,-1,-1,-1,-1,-1,-1,-1,-1,-1,-1,-1,-1],"loss_changes":[5.8694096E0,8.735652E-1,2.2220817E0,9.9658155E-1,8.246892E-1,8.389352E-1,4.3493557E-1,2.695012E-1,0E0,6.3279474E-1,4.8298237E-1,6.6391003E-1,1.0617131E-1,7.340824E-1,5.8068895E-1,2.880478E-1,0E0,5.16294E-1,2.7223945E-1,5.780409E-1,3.7027612E-1,6.652204E-1,0E0,6.1864913E-2,1.4963455E-1,3.6163768E-1,4.5430803E-1,3.754456E-1,5.0683856E-1,5.209841E-1,2.649188E-1,4.3874437E-1,0E0,3.9281726E-1,4.5846644E-1,0E0,0E0,2.2930443E-1,4.3513495E-1,9.711577E-1,4.3847463E-1,2.1644773E-1,0E0,0E0,0E0,0E0,2.934158E-1,0E0,4.52823E-1,0E0,0E0,6.34409E-1,3.883698E-1,3.9377967E-1,0E0,0E0,1.5804625E-1,2.340157E-1,2.957971E-1,4.471134E-1,1.3784814E-1,2.9272318E-1,0E0,3.0464682E-1,0E0,6.9948554E-1,3.524535E-1,3.345449E-1,7.18089E-1,3.7822825E-1,6.6556066E-1,0E0,0E0,2.3540486E-1,0E0,0E0,0E0,4.4136462E-1,1.2765217E-1,5.464979E-1,3.2156944E-1,3.0763927E-1,0E0,8.771396E-2,3.7404084E-1,3.8472128E-1,0E0,0E0,0E0,0E0,0E0,7.8671455E-1,1.7400503E-2,0E0,1.7892778E-1,0E0,0E0,3.2332432E-1,3.32852E-1,2.8557473E-1,3.061239E-1,3.1847012E-1,5.8845586E-1,0E0,7.892997E-1,5.491516E-1,3.4251738E-1,8.285288E-1,5.160429E-1,0E0,0E0,2.317087E-1,0E0,1.505765E-1,0E0,3.3279082E-1,4.0459555E-1,3.296895E-1,3.3621752E-1,0E0,0E0,3.8033143E-1,0E0,6.9044447E-1,3.6748552E-1,0E0,0E0,1.5014255E-1,0E0,0E0,2.3742506E-1,0E0,0E0,0E0,0E0,0E0,0E0,0E0,0E0,0E0,2.4031657E-1,0E0,3.4501088E-1,0E0,2.7104524E-1,1.090256E0,1.2894735E0,6.264293E-1,2.6001638E-1,2.6606488E-1,1.9631623E-1,6.9679E-1,7.89379E-1,4.7165316E-1,2.0476013E-1,0E0,0E0,0E0,0E0,1.9129165E-1,0E0,0E0,4.5251116E-1,2.0796876E-1,1.6707397E-1,4.4202897E-1,1.4319658E-1,2.0793945E-1,0E0,4.357128E-1,5.435766E-1,0E0,6.026101E-2,1.2918665E-1,0E0,0E0,0E0,0E0,2.1276696E-1,1.12986565E-1,0E0,2.6745242E-1,2.9264897E-1,9.606558E-1,8.0321443E-1,5.227591E-1,0E0,2.2530353E-1,2.995007E-1,0E0,1.5397906E-1,2.3040879E-1,0E0,0E0,0E0,3.011658E-1,0E0,4.3847758E-1,4.243045E-1,5.274813E-1,3.5705528E-1,1.6907679E-1,0E0,0E0,0E0,2.731809E-1,0E0,0E0,0E0,0E0,1.935264E-1,0E0,4.3731737E-1,1.532749E-1,7.085166E-1,0E0,0E0,0E0,0E0,0E0,0E0,0E0,0E0,0E0,0E0,0E0,0E0,0E0,0E0,0E0,0E0,0E0,0E0,0E0,0E0,0E0,0E0,0E0,0E0,0E0,0E0,0E0,0E0,0E0,0E0,0E0,0E0,0E0,0E0,0E0,0E0,0E0,0E0,0E0,0E0,0E0,0E0,0E0,0E0,0E0,0E0,0E0,0E0,0E0,0E0,0E0,0E0,0E0,0E0],"parents":[2147483647,0,0,1,1,2,2,3,3,4,4,5,5,6,6,7,7,9,9,10,10,11,11,12,12,13,13,14,14,15,15,17,17,18,18,19,19,20,20,21,21,23,23,24,24,25,25,26,26,27,27,28,28,29,29,30,30,31,31,33,33,34,34,37,37,38,38,39,39,40,40,41,41,46,46,48,48,51,51,52,52,53,53,56,56,57,57,58,58,59,59,60,60,61,61,63,63,65,65,66,66,67,67,68,68,69,69,70,70,73,73,77,77,78,78,79,79,80,80,81,81,83,83,84,84,85,85,91,91,92,92,94,94,97,97,98,98,99,99,100,100,101,101,102,102,104,104,105,105,106,106,107,107,108,108,111,111,113,113,115,115,116,116,117,117,118,118,121,121,123,123,124,124,127,127,130,130,140,140,142,142,144,144,145,145,146,146,147,147,148,148,149,149,150,150,151,151,152,152,153,153,154,154,159,159,162,162,163,163,164,164,165,165,166,166,167,167,169,169,170,170,172,172,173,173,178,178,179,179,181,181,182,182,183,183,184,184,185,185,187,187,188,188,190,190,191,191,195,195,197,197,198,198,199,199,200,200,201,201,205,205,210,210,212,212,213,213,214,214],"right_children":[2,4,6,8,10,12,14,16,-1,18,20,22,24,26,28,30,-1,32,34,36,38,40,-1,42,44,46,48,50,52,54,56,58,-1,60,62,-1,-1,64,66,68,70,72,-1,-1,-1,-1,74,-1,76,-1,-1,78,80,82,-1,-1,84,86,88,90,92,94,-1,96,-1,98,100,102,104,106,108,-1,-1,110,-1,-1,-1,112,114,116,118,120,-1,122,124,126,-1,-1,-1,-1,-1,128,130,-1,132,-1,-1,134,136,138,140,142,144,-1,146,148,150,152,154,-1,-1,156,-1,158,-1,160,162,164,166,-1,-1,168,-1,170,172,-1,-1,174,-1,-1,176,-1,-1,-1,-1,-1,-1,-1,-1,-1,178,-1,180,-1,182,184,186,188,190,192,194,196,198,200,202,-1,-1,-1,-1,204,-1,-1,206,208,210,212,214,216,-1,218,220,-1,222,224,-1,-1,-1,-1,226,228,-1,230,232,234,236,238,-1,240,242,-1,244,246,-1,-1,-1,248,-1,250,252,254,256,258,-1,-1,-1,260,-1,-1,-1,-1,262,-1,264,266,268,-1,-1,-1,-1,-1,-1,-1,-1,-1,-1,-1,-1,-1,-1,-1,-1,-1,-1,-1,-1,-1,-1,-1,-1,-1,-1,-1,-1,-1,-1,-1,-1,-1,-1,-1,-1,-1,-1,-1,-1,-1,-1,-1,-1,-1,-1,-1,-1,-1,-1,-1,-1,-1,-1],"split_conditions":[-4.9708688E-1,-7.706894E-2,3.934791E-1,1.7194196E0,4.105278E-2,1.7019502E0,-9.678017E-1,4.5291877E0,2.719511E-2,-1.0669751E0,-9.964731E-1,1.4190024E0,1.2440324E0,9.9515736E-1,-6.529739E-1,-1.1368486E0,1.9954909E-2,-2.4017556E-1,3.0708923E0,-1.7585583E0,-5.876636E-1,4.0593684E-1,2.8551841E-2,1.8176891E0,1.8176891E0,-9.816105E-2,-2.4987741E-1,9.899805E-2,-4.6790013E-1,-2.596921E-1,-2.0178928E0,-2.0709057E-1,2.7604386E-2,-6.291683E-1,2.503958E-1,2.4353111E-2,-2.731486E-2,-6.136473E-1,1.2331287E-1,-8.4954137E-1,-5.728841E-1,-2.962267E-1,2.923475E-2,1.9954909E-2,-1.873414E-2,2.9392377E-2,4.7077525E-1,-3.2996364E-2,4.9421743E-1,-1.7450996E-2,3.2413382E-2,-3.18945E-1,-3.636647E-1,9.620904E-1,-2.6516033E-2,1.8078214E-2,-7.307469E-1,1.6140733E0,-1.7402823E0,-8.8327825E-1,-4.2940712E-1,-6.529739E-1,2.5549203E-2,-4.606609E-1,2.932397E-2,-5.5789053E-1,1.07312486E-1,7.760399E-1,-7.3097396E-1,1.0497813E0,3.1866345E-1,-1.873414E-2,2.4353111E-2,1.7529854E0,2.2996867E-2,2.6825173E-2,-2.4718272E-2,-6.067054E-1,4.2882347E-1,9.249314E-1,-2.9161403E-1,-1.7171481E0,-2.2863269E-2,-3.257356E-1,-2.4017556E-1,-7.455108E-1,2.8221428E-2,1.8376691E-2,-2.6784688E-2,-2.4647292E-2,2.6564687E-2,-5.4576963E-1,1.1536028E0,-2.5961211E-2,-1.4229972E0,2.3194818E-2,-2.1875428E-2,-1.3072585E0,3.8350654E0,-1.538736E0,8.071909E-1,-1.5279254E0,9.9515736E-1,3.72419E-2,2.8112984E-1,-8.4954137E-1,6.323974E-1,-4.445803E-1,9.9515736E-1,-2.8493105E-2,1.5523404E-2,1.1232562E0,-3.7330624E-2,8.160709E-2,2.7211947E-2,-5.7924952E-2,2.72395E-1,-3.52229E-1,1.6199075E0,-1.873414E-2,2.8243897E-2,-3.636647E-1,-2.9428616E-2,-5.909186E-2,-1.9561707E0,-2.3430979E-2,2.401101E-2,-8.8327825E-1,2.6188612E-2,-2.9088486E-2,-2.4987741E-1,-1.6350536E-2,2.296409E-2,-2.0098494E-2,2.9440433E-2,-3.0905997E-2,1.745455E-2,-1.4781736E-2,3.0922955E-2,-2.4067083E-2,-1.0757809E0,1.9954909E-2,8.1213707E-1,-2.6805142E-2,-1.0523251E0,2.72395E-1,9.2572683E-1,-2.544698E-1,-9.7603256E-1,-6.914515E-1,-9.537188E-1,-4.2163166E-1,-8.8431615E-1,2.2619383E0,-1.381368E-1,2.3776753E-2,-2.0593988E-2,1.8048638E-2,-2.078776E-2,-1.498705E-1,-3.0162154E-2,3.0367006E-2,3.8457364E-1,6.603011E-1,1.2671666E0,-5.148411E-2,1.1977639E0,-1.5783427E0,2.6191806E-2,-8.4430325E-1,-5.2634215E-1,2.0057723E-2,-3.18945E-1,-9.6004206E-1,-2.8274763E-2,-2.5421847E-2,1.707519E-2,2.6992107E-2,1.1452847E0,-3.18945E-1,1.9954909E-2,-1.0471538E0,2.1462672E0,-2.8780648E-1,-5.62113E-2,-1.3058954E0,3.077559E-2,-1.5712112E0,-1.9929461E-1,-1.669763E-2,2.661125E0,-1.3797319E-1,-1.4625701E-2,-2.3210268E-2,1.7827138E-2,1.0497813E0,-3.1206647E-2,1.6140733E0,-3.8134807E-1,2.0167854E0,1.0502763E0,-8.125088E-1,2.7595801E-2,-1.7585365E-2,2.2925818E-2,1.1746297E0,2.4902066E-2,1.6841978E-2,-2.9327853E-2,3.3068176E-2,-1.498705E-1,2.901808E-2,1.2724195E0,-6.023197E-2,1.0497813E0,5.111204E-3,-2.771524E-2,-2.8631428E-2,6.762706E-4,3.410878E-2,-6.4711473E-3,-2.9714812E-2,-1.1844611E-2,1.8557182E-2,-1.7391661E-2,1.8893091E-2,-2.3766695E-2,-2.92171E-2,-9.924966E-3,-3.1338517E-2,8.766401E-3,2.5039896E-2,-1.9776834E-2,-5.9604766E-3,1.7855428E-2,-7.299458E-5,-2.6069704E-2,1.0485413E-2,-3.126663E-2,-1.5296166E-2,2.6549393E-2,-3.0352354E-2,1.6049657E-2,3.17468E-2,4.808247E-4,3.0819077E-2,-3.2686372E-3,-8.992882E-3,3.0667443E-2,-2.0165429E-2,2.5764612E-2,-1.96726E-2,3.3426996E-2,-3.3553377E-2,5.9921104E-3,3.368109E-2,-2.2088122E-2,-1.9500935E-2,1.830065E-2,-2.9029999E-2,1.699408E-2,-1.9637274E-2,2.0797731E-2,9.4809225E-3,-1.5361944E-2,1.2295876E-2,3.1367294E-2,2.814497E-2,-2.493288E-2],"split_indices":[0,1,3,4,2,0,6,7,0,5,3,7,2,8,2,6,0,3,13,4,3,1,0,0,0,7,7,4,2,2,2,6,0,7,3,0,0,5,5,4,4,4,0,0,0,0,7,0,5,0,0,1,7,5,0,0,3,1,2,6,5,2,0,6,0,5,3,0,4,10,2,0,0,2,0,0,0,2,0,3,6,2,0,7,3,2,0,0,0,0,0,5,5,0,0,0,0,0,2,0,6,3,8,0,7,4,5,3,8,0,0,0,0,0,0,2,2,2,3,0,0,7,0,4,4,0,0,6,0,0,7,0,0,0,0,0,0,0,0,0,0,0,7,0,6,2,5,7,3,4,2,2,2,2,4,0,0,0,0,0,0,0,6,0,2,2,2,2,0,0,3,0,1,0,0,0,0,0,6,1,0,4,2,7,3,6,0,5,3,0,1,3,0,0,0,10,0,1,0,1,1,3,0,0,0,2,0,0,0,0,0,0,3,7,10,0,0,0,0,0,0,0,0,0,0,0,0,0,0,0,0,0,0,0,0,0,0,0,0,0,0,0,0,0,0,0,0,0,0,0,0,0,0,0,0,0,0,0,0,0,0,0,0,0,0,0,0,0,0],"split_type":[0,0,0,0,0,0,0,0,0,0,0,0,0,0,0,0,0,0,0,0,0,0,0,0,0,0,0,0,0,0,0,0,0,0,0,0,0,0,0,0,0,0,0,0,0,0,0,0,0,0,0,0,0,0,0,0,0,0,0,0,0,0,0,0,0,0,0,0,0,0,0,0,0,0,0,0,0,0,0,0,0,0,0,0,0,0,0,0,0,0,0,0,0,0,0,0,0,0,0,0,0,0,0,0,0,0,0,0,0,0,0,0,0,0,0,0,0,0,0,0,0,0,0,0,0,0,0,0,0,0,0,0,0,0,0,0,0,0,0,0,0,0,0,0,0,0,0,0,0,0,0,0,0,0,0,0,0,0,0,0,0,0,0,0,0,0,0,0,0,0,0,0,0,0,0,0,0,0,0,0,0,0,0,0,0,0,0,0,0,0,0,0,0,0,0,0,0,0,0,0,0,0,0,0,0,0,0,0,0,0,0,0,0,0,0,0,0,0,0,0,0,0,0,0,0,0,0,0,0,0,0,0,0,0,0,0,0,0,0,0,0,0,0,0,0,0,0,0,0,0,0,0,0,0,0,0,0,0,0,0,0,0,0,0,0,0,0,0,0],"sum_hessian":[8.24E2,2.79E2,5.45E2,1.37E2,1.42E2,3.46E2,1.99E2,1.33E2,4E0,8.6E1,5.6E1,3.3E2,1.6E1,2.5E1,1.74E2,1.32E2,1E0,2.2E1,6.4E1,1E1,4.6E1,3.23E2,7E0,1.4E1,2E0,1.4E1,1.1E1,2.6E1,1.48E2,1.5E1,1.17E2,1.7E1,5E0,5.2E1,1.2E1,2E0,8E0,1.3E1,3.3E1,2.08E2,1.15E2,3E0,1.1E1,1E0,1E0,8E0,6E0,6E0,5E0,1E0,2.5E1,1.4E1,1.34E2,9E0,6E0,1E0,1.16E2,8E0,9E0,5E0,4.7E1,9E0,3E0,4E0,9E0,1.5E1,1.8E1,5.1E1,1.57E2,4.9E1,6.6E1,1E0,2E0,4E0,2E0,3E0,2E0,8E0,6E0,2.3E1,1.11E2,7E0,2E0,4.7E1,6.9E1,5E0,3E0,1E0,8E0,2E0,3E0,1.7E1,3E1,6E0,3E0,2E0,2E0,5E0,1E1,9E0,9E0,3.1E1,2E1,4E0,1.53E2,2.4E1,2.5E1,3.9E1,2.7E1,3E0,1E0,3E0,5E0,2E0,4E0,8E0,1.5E1,2.8E1,8.3E1,1E0,6E0,1.3E1,3.4E1,3.7E1,3.2E1,3E0,2E0,1.4E1,3E0,2.5E1,5E0,1E0,2E0,1E0,4E0,9E0,1E0,1E0,8E0,3E0,6E0,1E0,3E1,7E0,1.3E1,1.26E2,2.7E1,1.4E1,1E1,2.2E1,3E0,1.3E1,2.6E1,2.1E1,6E0,2E0,1E0,1E0,1E0,3E0,5E0,7E0,8E0,2E0,2.6E1,4.9E1,3.4E1,1.2E1,1E0,2.4E1,1.3E1,1E0,3.1E1,2E0,1.2E1,4E0,1E0,3E0,3E0,2.9E1,1E0,5E0,8E0,7.4E1,5.2E1,2.3E1,4E0,5E0,9E0,1E0,9E0,2.1E1,1E0,2E0,1E0,6E0,7E0,8E0,1.8E1,1.8E1,3E0,3E0,3E0,1E0,2E0,5E0,3E0,1E0,1E0,2.3E1,3E0,8E0,4.1E1,2.5E1,9E0,2E0,1E1,1.7E1,7E0,4E0,9E0,2.7E1,4E0,1E0,1E0,1E0,2E0,2.4E1,5E0,2E0,3E0,7E0,1E0,2.5E1,4.9E1,3.5E1,1.7E1,3E0,2E1,1E0,4E0,8E0,1E0,7E0,2E0,1.9E1,2E0,3E0,3E0,6E0,2E0,1E0,1.7E1,1.4E1,4E0,2E0,1E0,2E0,1E0,4E0,1E0,1E0,2E0,3.3E1,8E0,8E0,1.7E1,6E0,3E0],"tree_param":{"num_deleted":"0","num_feature":"24","num_nodes":"269","size_leaf_vector":"1"}},{"base_weights":[5.496016E-4,-1.0557891E-1,5.497347E-2,-1.5696499E-1,-5.525122E-2,1.1160884E-2,1.3071343E-1,-1.7098615E-1,2.5019502E-2,-1.2363401E-1,1.3898954E-2,1.0184475E-3,2.0798357E-1,1.8593837E-2,1.4662427E-1,-1.4154725E-1,-2.3906687E-1,-1.7370372E-1,6.246642E-2,-1.2478388E-1,4.657117E-2,-5.3925263E-3,2.6053557E-2,2.3416841E-1,7.731527E-3,1.5298581E-1,-1.5094562E-1,2.6983616E-1,1.2331323E-1,-1.8908447E-1,-3.0662522E-2,1.03115635E-2,-2.7604345E-2,8.9752026E-2,-1.9000222E-1,2.0086142E-1,-1.0103626E-1,2.2729572E-2,-2.0240512E-1,2.3218623E-1,-1.0932785E-2,-3.6292262E-2,4.8858643E-2,8.148462E-2,2.6554897E-2,1.8957162E-2,-1.7797433E-2,2.6779724E-2,-1.6483976E-2,-3.0168105E-2,5.006997E-2,-1.6578447E-2,2.9296711E-2,-3.8600996E-2,1.4039028E-1,2.2745498E-2,-2.0540038E-1,-1.5465888E-1,6.0593877E-2,-2.1785824E-2,3.1110076E-2,-1.5580713E-2,2.235408E-2,-2.0734178E-1,2.1393705E-2,2.6515096E-2,-1.567275E-2,1.6898358E-2,-1.6375104E-1,2.6906053E-2,-2.5095796E-2,5.3109624E-3,2.695562E-2,8.130124E-2,-1.24606684E-1,-8.7384835E-2,4.265842E-2,1.2059655E-1,-2.0558732E-3,-1.7797433E-2,2.2729572E-2,-1.5186003E-1,2.1463744E-2,2.4813285E-2,-2.3070386E-2,-1.9763568E-1,1.7138658E-1,3.227325E-2,1.6230471E-1,-2.3103124E-1,3.9973985E-2,-2.1149045E-1,1.05276495E-1,3.2903574E-2,-1.401451E-1,-1.6194336E-1,-2.577605E-2,2.2007179E-2,-1.844156E-2,-2.4705216E-2,1.6802788E-2,1.849242E-2,-1.4456511E-2,-1.6937634E-2,1.7734278E-2,1.5976794E-1,-1.5450378E-1,-1.7333418E-1,2.255364E-2,6.2876455E-2,-1.1301057E-1,-9.20419E-2,9.358257E-2,1.7214648E-1,-3.5399158E-2,-8.9017436E-2,8.2547195E-2,-2.635612E-2,1.4747232E-2,6.861582E-2,-3.4219738E-2,-1.7347774E-2,2.5034988E-2,-1.5012415E-1,1.328547E-1,2.4647552E-1,1.3131355E-1,-2.4199082E-1,2.023122E-2,2.7259951E-2,-2.0264504E-2,9.360899E-3,-2.6160864E-2,2.933023E-2,-1.35387555E-2,-2.56356E-2,1.2731299E-1,-1.9867826E-1,2.226518E-2,-1.909357E-2,1.8827526E-1,1.765433E-2,-2.3910219E-2,-2.5559897E-2,4.205299E-3,-2.8023263E-2,2.4279085E-1,-6.506832E-2,-2.974635E-1,3.711214E-2,-1.5382513E-1,3.2391313E-1,2.925174E-2,-4.267551E-2,2.2369415E-1,-1.7636332E-1,1.5845291E-1,2.5254894E-2,-1.17371425E-1,1.426068E-1,-8.786843E-2,2.2191634E-2,-1.9564288E-2,1.7146206E-2,-1.9748373E-2,7.695026E-2,-2.764864E-2,2.770989E-2,-1.0123988E-2,-7.907721E-2,2.7351934E-1,8.060893E-2,1.9999692E-1,2.574873E-2,-2.5201273E-1,-1.3659276E-2,1.5063412E-2,2.6000902E-2,-1.35387555E-2,-2.3793682E-1,2.1646773E-2,2.1764821E-1,-1.7021887E-2,-2.1532299E-2,1.3508122E-1,-1.11054264E-1,3.6004983E-2,-9.812332E-2,2.323109E-1,-3.342766E-2,2.3780558E-2,-3.788587E-2,-3.8554475E-2,3.9057534E-2,7.627937E-2,1.5711917E-1,-6.769353E-2,1.14816025E-1,-2.2887105E-2,2.40027E-1,-3.3104916E-3,-2.5100801E-2,1.7307473E-2,-1.54489E-2,2.519391E-2,-3.5166383E-2,-2.582997E-2,4.0518492E-2,3.1210503E-2,-2.7450118E-2,8.230359E-2,-1.6706096E-2,2.1397432E-2,-1.6874872E-1,2.3034412E-2,1.5999878E-2,-2.786146E-2,2.9899139E-2,5.2307077E-2,2.6438693E-2,3.9308667E-2,2.354281E-1,8.787617E-2,1.7539531E-2,-1.3677222E-2,-2.6329195E-2,-1.7379912E-2,-8.263692E-3,-2.6628224E-2,2.3436464E-2,-1.982867E-2,-1.0611345E-3,2.4684388E-2,2.5317604E-2,-1.6864901E-2,2.1551063E-2,-2.9174611E-2,-1.7865447E-2,8.297013E-3,3.1322684E-2,-2.0750817E-2,-2.8144017E-2,7.5353063E-3,2.641273E-2,-2.436322E-2,-1.22138355E-2,2.7696474E-2,5.395033E-3,-2.9204754E-2,2.2830633E-2,-1.6957259E-2,8.814416E-3,2.6166812E-2,-1.6620807E-2,1.6124234E-2,-9.387482E-3,2.5249029E-2,-4.0333504E-3,2.5880039E-2,-8.07098E-3,2.7222026E-2,-2.6707599E-2,1.6144378E-2,-1.865541E-2,1.9411217E-2,8.560716E-3,-1.3996437E-2,-1.4737577E-3,2.568893E-2,2.5732547E-2,-2.3062913E-2],"categories":[],"categories_nodes":[],"categories_segments":[],"categories_sizes":[],"default_left":[0,0,0,0,0,0,0,0,0,0,0,0,0,0,0,0,0,0,0,0,0,0,0,0,0,0,0,0,0,0,0,0,0,0,0,0,0,0,0,0,0,0,0,0,0,0,0,0,0,0,0,0,0,0,0,0,0,0,0,0,0,0,0,0,0,0,0,0,0,0,0,0,0,0,0,0,0,0,0,0,0,0,0,0,0,0,0,0,0,0,0,0,0,0,0,0,0,0,0,0,0,0,0,0,0,0,0,0,0,0,0,0,0,0,0,0,0,0,0,0,0,0,0,0,0,0,0,0,0,0,0,0,0,0,0,0,0,0,0,0,0,0,0,0,0,0,0,0,0,0,0,0,0,0,0,0,0,0,0,0,0,0,0,0,0,0,0,0,0,0,0,0,0,0,0,0,0,0,0,0,0,0,0,0,0,0,0,0,0,0,0,0,0,0,0,0,0,0,0,0,0,0,0,0,0,0,0,0,0,0,0,0,0,0,0,0,0,0,0,0,0,0,0,0,0,0,0,0,0,0,0,0,0,0,0,0,0,0,0,0,0,0,0,0,0,0,0,0,0,0,0,0,0,0,0,0,0,0,0,0,0,0,0,0,0,0,0,0,0,0,0],"id":6,"left_children":[1,3,5,7,9,11,13,15,-1,17,19,21,23,25,27,29,31,33,35,37,39,41,-1,43,45,47,49,51,53,55,57,59,-1,61,63,65,67,-1,69,71,73,75,77,79,-1,-1,-1,-1,81,-1,83,-1,-1,85,87,-1,89,91,93,-1,-1,-1,-1,95,97,-1,-1,-1,99,101,-1,103,-1,105,107,109,111,113,115,-1,-1,117,-1,-1,-1,119,121,123,125,127,129,131,133,-1,135,137,-1,-1,-1,-1,-1,-1,-1,-1,-1,139,141,143,-1,145,147,149,151,153,155,157,159,-1,-1,161,-1,163,-1,165,167,169,171,173,-1,-1,-1,175,-1,-1,-1,-1,177,179,-1,-1,181,-1,-1,-1,183,-1,185,187,189,-1,191,193,195,197,199,201,203,-1,205,207,209,-1,-1,-1,-1,211,-1,-1,213,215,217,219,221,223,225,-1,-1,-1,-1,227,229,231,-1,-1,233,235,-1,237,239,-1,-1,-1,241,-1,243,245,247,249,-1,251,253,-1,-1,-1,-1,255,-1,257,-1,-1,259,-1,-1,261,-1,-1,-1,-1,263,-1,265,267,269,-1,-1,-1,-1,-1,-1,-1,-1,-1,-1,-1,-1,-1,-1,-1,-1,-1,-1,-1,-1,-1,-1,-1,-1,-1,-1,-1,-1,-1,-1,-1,-1,-1,-1,-1,-1,-1,-1,-1,-1,-1,-1,-1,-1,-1,-1,-1,-1],"loss_changes":[4.770941E0,7.154474E-1,1.8103677E0,8.306017E-1,6.7791986E-1,6.92491E-1,3.5405684E-1,2.3472667E-1,0E0,6.817461E-1,3.320488E-1,5.5210865E-1,8.73301E-2,6.154958E-1,4.693601E-1,5.002328E-1,3.6247158E-1,2.6180732E-1,3.8234153E-1,4.2860982E-1,6.3228077E-1,5.449096E-1,0E0,5.0231457E-2,1.3504519E-1,2.962703E-1,3.787072E-1,3.206303E-1,4.1740656E-1,5.020659E-1,3.4883526E-1,4.795619E-1,0E0,1.6624147E-1,2.0237327E-1,2.4845958E-1,1.6314508E-1,0E0,1.4035681E-1,1.17264986E-1,4.924223E-1,8.387228E-1,4.3124312E-1,1.9178078E-1,0E0,0E0,0E0,0E0,2.51613E-1,0E0,3.9091042E-1,0E0,0E0,5.348017E-1,3.1462073E-1,0E0,4.1803026E-1,2.143079E-1,1.0160741E0,0E0,0E0,0E0,0E0,7.270384E-2,2.4503364E-1,0E0,0E0,0E0,2.3497458E-1,1.0802024E-1,0E0,1.2019298E-1,0E0,5.0575864E-1,3.9738673E-1,4.922757E-1,5.710925E-1,4.001307E-1,5.223532E-1,0E0,0E0,2.0604683E-1,0E0,0E0,0E0,3.698881E-1,1.0866462E-1,4.602438E-1,2.5979233E-1,3.2916427E-1,4.5031658E-1,1.2420419E-1,1.7546263E-1,0E0,3.745345E-1,4.5394993E-1,0E0,0E0,0E0,0E0,0E0,0E0,0E0,0E0,0E0,2.35901E-1,2.3825426E-1,